{"learner":{"attributes":{"best_iteration":"198","best_ntree_limit":"199","best_score":"0.46766"},"feature_names":["PCC_BRCA","PCC_CCRCC","PCC_COAD","PCC_GBM","PCC_HCC","PCC_HNSCC","PCC_LSCC","PCC_LUAD","PCC_OV","PCC_PDAC","PCC_UCEC","seq_simi","PPI","STY"],"feature_types":["float","float","float","float","float","float","float","float","float","float","float","int","float","int"],"gradient_booster":{"model":{"gbtree_model_param":{"num_trees":"200","size_leaf_vector":"0"},"tree_info":[0,0,0,0,0,0,0,0,0,0,0,0,0,0,0,0,0,0,0,0,0,0,0,0,0,0,0,0,0,0,0,0,0,0,0,0,0,0,0,0,0,0,0,0,0,0,0,0,0,0,0,0,0,0,0,0,0,0,0,0,0,0,0,0,0,0,0,0,0,0,0,0,0,0,0,0,0,0,0,0,0,0,0,0,0,0,0,0,0,0,0,0,0,0,0,0,0,0,0,0,0,0,0,0,0,0,0,0,0,0,0,0,0,0,0,0,0,0,0,0,0,0,0,0,0,0,0,0,0,0,0,0,0,0,0,0,0,0,0,0,0,0,0,0,0,0,0,0,0,0,0,0,0,0,0,0,0,0,0,0,0,0,0,0,0,0,0,0,0,0,0,0,0,0,0,0,0,0,0,0,0,0,0,0,0,0,0,0,0,0,0,0,0,0,0,0,0,0,0,0],"trees":[{"base_weights":[-1.3335549E0,-1.5906255E0,-7.554362E-1,-1.7267219E0,-1.3689086E0,-9.231019E-1,-2.5436026E-1,-1.7993869E0,-1.6253037E0,-1.396996E0,-8.2418245E-1,-9.777804E-1,-2.9554656E-1,-3.321895E-1,5.040156E-1,-1.8112112E0,-1.4590589E0,-1.6487707E0,-1.2837838E0,-1.4181981E0,-6.822107E-1,-9.3493056E-1,4.021164E-2,-1.0203776E0,-2.5106156E-1,-4.9179575E-1,2.4864864E-1,-4.7170562E-1,4.4327263E-2,2.8482002E-1,9.9717516E-1],"categories":[],"categories_nodes":[],"categories_segments":[],"categories_sizes":[],"default_left":[true,true,true,true,true,true,true,true,true,true,false,true,false,true,false,false,false,false,false,false,false,false,false,false,false,false,false,false,false,false,false],"id":0,"left_children":[1,3,5,7,9,11,13,15,17,19,21,23,25,27,29,-1,-1,-1,-1,-1,-1,-1,-1,-1,-1,-1,-1,-1,-1,-1,-1],"loss_changes":[2.3818125E4,3.3452188E3,4.144453E3,5.0365625E2,6.4453125E2,1.2681035E3,7.303067E2,1.5847656E2,2.2792188E2,6.0721094E2,1.9836621E2,1.0523027E3,3.1667117E2,5.8938306E2,1.2421829E2,0E0,0E0,0E0,0E0,0E0,0E0,0E0,0E0,0E0,0E0,0E0,0E0,0E0,0E0,0E0,0E0],"parents":[2147483647,0,0,1,1,2,2,3,3,4,4,5,5,6,6,7,7,8,8,9,9,10,10,11,11,12,12,13,13,14,14],"right_children":[2,4,6,8,10,12,14,16,18,20,22,24,26,28,30,-1,-1,-1,-1,-1,-1,-1,-1,-1,-1,-1,-1,-1,-1,-1,-1],"split_conditions":[-5.5E0,-1.15E1,3.5E0,-1.55E1,2.6443744E-1,1.0215677E-1,1.0128643E-1,1.4879242E-1,1.05971485E-1,1.7083594E-1,5.527524E-1,2.614777E-1,2.1073191E-1,-2.16791E-1,2.0530383E-1,-2.716817E-1,-2.1885884E-1,-2.4731562E-1,-1.9256757E-1,-2.1272972E-1,-1.0233161E-1,-1.402396E-1,6.0317465E-3,-1.5305665E-1,-3.7659235E-2,-7.376937E-2,3.7297297E-2,-7.075585E-2,6.6490895E-3,4.2723004E-2,1.4957628E-1],"split_indices":[11,11,11,11,7,12,12,12,12,12,7,7,12,8,12,0,0,0,0,0,0,0,0,0,0,0,0,0,0,0,0],"split_type":[0,0,0,0,0,0,0,0,0,0,0,0,0,0,0,0,0,0,0,0,0,0,0,0,0,0,0,0,0,0,0],"sum_hessian":[1.6027175E5,1.10939E5,4.933275E4,6.87385E4,4.22005E4,3.69635E4,1.236925E4,4.003625E4,2.870225E4,4.012975E4,2.07075E3,3.40005E4,2.963E3,1.12185E4,1.15075E3,3.868775E4,1.3485E3,2.685325E4,1.849E3,3.897275E4,1.157E3,1.8355E3,2.3525E2,3.21175E4,1.883E3,2.17775E3,7.8525E2,8.18525E3,3.03325E3,7.9775E2,3.53E2],"tree_param":{"num_deleted":"0","num_feature":"14","num_nodes":"31","size_leaf_vector":"0"}},{"base_weights":[-1.1472862E0,-1.3550817E0,-5.947259E-1,-1.4774741E0,-1.1261808E0,-7.685812E-1,-2.5998914E-1,-1.5592107E0,-1.3874738E0,-1.1913124E0,-8.6932313E-1,-8.315636E-1,-3.1134397E-1,-3.8186297E-1,1.02602E-1,-1.5659941E0,-1.0418892E0,-1.3985851E0,-7.2049665E-1,-1.2219272E0,-8.019753E-1,-9.0519917E-1,2.9595824E-2,-8.801842E-1,-3.2452926E-1,-4.5458338E-1,1.1129783E-1,-4.457607E-1,2.75237E-1,-2.9241395E-1,2.37411E-1],"categories":[],"categories_nodes":[],"categories_segments":[],"categories_sizes":[],"default_left":[true,true,true,true,true,true,true,true,true,true,true,true,false,true,false,false,false,false,false,false,false,false,false,false,false,false,false,false,false,false,false],"id":1,"left_children":[1,3,5,7,9,11,13,15,17,19,21,23,25,27,29,-1,-1,-1,-1,-1,-1,-1,-1,-1,-1,-1,-1,-1,-1,-1,-1],"loss_changes":[1.8195156E4,3.2247656E3,2.5203066E3,5.498281E2,6.7028906E2,8.206289E2,6.543543E2,1.3634375E2,2.6373438E2,3.8054297E2,2.6191943E2,6.173379E2,2.0907217E2,4.6542908E2,1.984654E2,0E0,0E0,0E0,0E0,0E0,0E0,0E0,0E0,0E0,0E0,0E0,0E0,0E0,0E0,0E0,0E0],"parents":[2147483647,0,0,1,1,2,2,3,3,4,4,5,5,6,6,7,7,8,8,9,9,10,10,11,11,12,12,13,13,14,14],"right_children":[2,4,6,8,10,12,14,16,18,20,22,24,26,28,30,-1,-1,-1,-1,-1,-1,-1,-1,-1,-1,-1,-1,-1,-1,-1,-1],"split_conditions":[-4.5E0,-1.05E1,2.5E0,-1.55E1,9.627627E-3,3.6334448E-2,9.5E0,2.2179814E-1,2.1294037E-1,1.0215677E-1,1.5536398E-1,9.569843E-2,2.9147884E-1,1.0186787E-1,1.7937582E-2,-2.3489913E-1,-1.5628338E-1,-2.0978777E-1,-1.080745E-1,-1.8328908E-1,-1.202963E-1,-1.3577989E-1,4.439374E-3,-1.3202763E-1,-4.8679393E-2,-6.818751E-2,1.6694676E-2,-6.686411E-2,4.1285552E-2,-4.3862093E-2,3.561165E-2],"split_indices":[11,11,11,11,5,0,11,12,12,12,12,12,0,12,12,0,0,0,0,0,0,0,0,0,0,0,0,0,0,0,0],"split_type":[0,0,0,0,0,0,0,0,0,0,0,0,0,0,0,0,0,0,0,0,0,0,0,0,0,0,0,0,0,0,0],"sum_hessian":[1.5847352E5,1.1516369E5,4.3309832E4,7.5036484E4,4.0127207E4,2.8504098E4,1.4805733E4,3.9315023E4,3.5721457E4,3.2007414E4,8.119794E3,2.505242E4,3.4516782E3,1.1081107E4,3.724626E3,3.8804168E4,5.1085812E2,3.5135047E4,5.8641315E2,2.9672074E4,2.3353396E3,7.8081616E3,3.116323E2,2.2859627E4,2.1927932E3,2.5779111E3,8.7376697E2,1.0099348E4,9.817593E2,9.473988E2,2.777227E3],"tree_param":{"num_deleted":"0","num_feature":"14","num_nodes":"31","size_leaf_vector":"0"}},{"base_weights":[-1.0047395E0,-1.2341841E0,-5.8795905E-1,-1.3639963E0,-1.098559E0,-7.6957595E-1,-2.881604E-1,-1.3788767E0,-1.1157593E0,-1.1268194E0,-7.1698266E-1,-8.156701E-1,-2.7737796E-1,-3.6553633E-1,2.0949352E-1,-1.4447056E0,-1.3318857E0,-1.138134E0,6.1666286E-1,-1.1638923E0,-8.854159E-1,-8.374458E-1,-2.2696184E-1,-8.423641E-1,-1.0804654E-1,-3.980118E-1,5.899752E-1,-4.7626227E-1,-7.229781E-2,1.169348E-1,8.4625155E-1],"categories":[],"categories_nodes":[],"categories_segments":[],"categories_sizes":[],"default_left":[true,true,true,true,true,true,true,true,false,true,false,true,false,true,true,false,false,false,false,false,false,false,false,false,false,false,false,false,false,false,false],"id":2,"left_children":[1,3,5,7,9,11,13,15,17,19,21,23,25,27,29,-1,-1,-1,-1,-1,-1,-1,-1,-1,-1,-1,-1,-1,-1,-1,-1],"loss_changes":[1.4745906E4,1.7494844E3,2.9810605E3,1.8615625E2,5.237422E2,7.7335156E2,7.9553955E2,1.4635156E2,1.12295166E2,4.0426953E2,1.9797058E2,5.888203E2,3.0589337E2,5.804668E2,1.6376872E2,0E0,0E0,0E0,0E0,0E0,0E0,0E0,0E0,0E0,0E0,0E0,0E0,0E0,0E0,0E0,0E0],"parents":[2147483647,0,0,1,1,2,2,3,3,4,4,5,5,6,6,7,7,8,8,9,9,10,10,11,11,12,12,13,13,14,14],"right_children":[2,4,6,8,10,12,14,16,18,20,22,24,26,28,30,-1,-1,-1,-1,-1,-1,-1,-1,-1,-1,-1,-1,-1,-1,-1,-1],"split_conditions":[-6.5E0,-1.35E1,5E-1,1.1278964E-1,2.5638568E-1,1.8176745E-1,1.2124714E-1,-1.85E1,9E-1,9.6645474E-2,4.417525E-1,1.6203347E-1,5.0804436E-1,7.5E0,2.530379E-1,-2.1670584E-1,-1.9978286E-1,-1.707201E-1,9.2499435E-2,-1.7458385E-1,-1.328124E-1,-1.2561688E-1,-3.4044277E-2,-1.2635462E-1,-1.6206982E-2,-5.9701774E-2,8.849628E-2,-7.143934E-2,-1.0844672E-2,1.754022E-2,1.2693773E-1],"split_indices":[11,11,11,12,3,7,5,11,12,5,3,12,7,11,6,0,0,0,0,0,0,0,0,0,0,0,0,0,0,0,0],"split_type":[0,0,0,0,0,0,0,0,0,0,0,0,0,0,0,0,0,0,0,0,0,0,0,0,0,0,0,0,0,0,0],"sum_hessian":[1.5420731E5,9.945416E4,5.4753152E4,5.081146E4,4.8642695E4,3.4096223E4,2.0656932E4,4.793356E4,2.8779026E3,4.5286715E4,3.3559783E3,3.1175953E4,2.920269E3,1.7877568E4,2.779363E3,1.9952562E4,2.7980994E4,2.8415461E3,3.6356342E1,3.9254496E4,6.0322188E3,2.693194E3,6.6278436E2,3.0042457E4,1.1334961E3,2.5641775E3,3.560916E2,1.2976905E4,4.9006626E3,2.427663E3,3.5169983E2],"tree_param":{"num_deleted":"0","num_feature":"14","num_nodes":"31","size_leaf_vector":"0"}},{"base_weights":[-8.892525E-1,-1.1278803E0,-5.382118E-1,-1.2358122E0,-1.0004654E0,-7.136731E-1,-2.7482706E-1,-1.2407196E0,-4.947165E-1,-1.0199732E0,-4.5374712E-1,-7.757942E-1,-3.8073435E-1,-3.8243034E-1,6.7503594E-2,-1.2566372E0,-1.0201528E0,-7.379355E-1,6.9072254E-2,-1.038806E0,-5.084239E-1,-5.679262E-1,1.7419298E-1,-8.2624626E-1,-4.5122012E-1,-4.55448E-1,3.637087E-1,-4.650128E-1,-2.100786E-2,-2.95034E-1,2.0071422E-1],"categories":[],"categories_nodes":[],"categories_segments":[],"categories_sizes":[],"default_left":[true,true,true,true,true,true,true,true,false,true,false,true,false,true,false,false,false,false,false,false,false,false,false,false,false,false,false,false,false,false,false],"id":3,"left_children":[1,3,5,7,9,11,13,15,17,19,21,23,25,27,29,-1,-1,-1,-1,-1,-1,-1,-1,-1,-1,-1,-1,-1,-1,-1,-1],"loss_changes":[1.2450805E4,1.2156719E3,2.7797656E3,1.7360156E2,4.3240234E2,7.463965E2,8.860321E2,1.6578906E2,4.348802E1,3.77E2,1.0048276E2,4.9784375E2,3.160265E2,5.462119E2,2.779015E2,0E0,0E0,0E0,0E0,0E0,0E0,0E0,0E0,0E0,0E0,0E0,0E0,0E0,0E0,0E0,0E0],"parents":[2147483647,0,0,1,1,2,2,3,3,4,4,5,5,6,6,7,7,8,8,9,9,10,10,11,11,12,12,13,13,14,14],"right_children":[2,4,6,8,10,12,14,16,18,20,22,24,26,28,30,-1,-1,-1,-1,-1,-1,-1,-1,-1,-1,-1,-1,-1,-1,-1,-1],"split_conditions":[-7.5E0,-1.35E1,-5E-1,5.096725E-1,3.2028863E-1,1.4750354E-1,-1.4931211E-1,1.0333704E-1,6.2940216E-1,1.5536398E-1,5.507021E-1,1.4677358E-1,4.540615E-1,4.6434622E-2,3.0144185E-2,-1.8849559E-1,-1.5302293E-1,-1.10690325E-1,1.0360839E-2,-1.558209E-1,-7.626359E-2,-8.518894E-2,2.6128948E-2,-1.2393694E-1,-6.768302E-2,-6.8317205E-2,5.4556306E-2,-6.975192E-2,-3.151179E-3,-4.42551E-2,3.0107133E-2],"split_indices":[11,11,11,7,7,3,8,12,7,12,7,10,3,12,4,0,0,0,0,0,0,0,0,0,0,0,0,0,0,0,0],"split_type":[0,0,0,0,0,0,0,0,0,0,0,0,0,0,0,0,0,0,0,0,0,0,0,0,0,0,0,0,0,0,0],"sum_hessian":[1.4864048E5,8.848713E4,6.0153348E4,4.7901516E4,4.0585613E4,3.6101555E4,2.4051793E4,4.7585746E4,3.1577176E2,3.918651E4,1.3991E3,3.0423654E4,5.677902E3,1.8299633E4,5.7521597E3,4.437838E4,3.207368E3,2.2038751E2,9.538426E1,3.7794086E4,1.3924266E3,1.1839216E3,2.1517827E2,2.632944E4,4.0942144E3,5.1603843E3,5.175172E2,1.489577E4,3.4038625E3,1.5453146E3,4.206845E3],"tree_param":{"num_deleted":"0","num_feature":"14","num_nodes":"31","size_leaf_vector":"0"}},{"base_weights":[-7.918026E-1,-1.0223348E0,-4.665114E-1,-1.1170318E0,-8.728669E-1,-6.236769E-1,-2.351719E-1,-1.1957458E0,-1.0532234E0,-8.96461E-1,-3.862602E-1,-6.8416554E-1,-2.769763E-1,-2.8918502E-1,3.8582852E-1,-1.2023616E0,-7.1868664E-1,-1.0606138E0,-2.0821965E-1,-9.280894E-1,-5.865028E-1,-4.6969274E-1,1.6865872E-1,-7.2123134E-1,-2.9023305E-1,-3.491849E-1,2.5200978E-1,-3.4787714E-1,2.2179362E-1,2.7004653E-1,1.0012379E0],"categories":[],"categories_nodes":[],"categories_segments":[],"categories_sizes":[],"default_left":[true,true,true,true,true,true,true,true,true,true,false,true,true,true,false,false,false,false,false,false,false,false,false,false,false,false,false,false,false,false,false],"id":4,"left_children":[1,3,5,7,9,11,13,15,17,19,21,23,25,27,29,-1,-1,-1,-1,-1,-1,-1,-1,-1,-1,-1,-1,-1,-1,-1,-1],"loss_changes":[1.0686594E4,1.1795391E3,2.1490186E3,2.5516016E2,3.710879E2,7.3794824E2,8.0223975E2,7.125195E1,1.7591211E2,3.0194336E2,6.9427704E1,4.3736523E2,1.9987125E2,6.598981E2,1.3610681E2,0E0,0E0,0E0,0E0,0E0,0E0,0E0,0E0,0E0,0E0,0E0,0E0,0E0,0E0,0E0,0E0],"parents":[2147483647,0,0,1,1,2,2,3,3,4,4,5,5,6,6,7,7,8,8,9,9,10,10,11,11,12,12,13,13,14,14],"right_children":[2,4,6,8,10,12,14,16,18,20,22,24,26,28,30,-1,-1,-1,-1,-1,-1,-1,-1,-1,-1,-1,-1,-1,-1,-1,-1],"split_conditions":[-7.5E0,-1.25E1,-5E-1,-1.75E1,2.1166852E-1,8.917501E-2,2.668073E-1,2.2168803E-1,4.8803484E-1,2.1606722E-1,4.7440425E-1,9.559679E-2,2.3113197E-1,8.1324846E-2,4.9086925E-1,-1.8035424E-1,-1.07803E-1,-1.5909207E-1,-3.1232947E-2,-1.3921341E-1,-8.797542E-2,-7.045391E-2,2.529881E-2,-1.081847E-1,-4.3534957E-2,-5.2377738E-2,3.7801467E-2,-5.2181575E-2,3.3269044E-2,4.050698E-2,1.5018569E-1],"split_indices":[11,11,11,11,0,5,3,12,7,3,0,12,7,0,3,0,0,0,0,0,0,0,0,0,0,0,0,0,0,0,0],"split_type":[0,0,0,0,0,0,0,0,0,0,0,0,0,0,0,0,0,0,0,0,0,0,0,0,0,0,0,0,0,0,0],"sum_hessian":[1.4251205E5,8.340276E4,5.9109285E4,5.1051855E4,3.2350904E4,3.5196254E4,2.391303E4,2.2848385E4,2.8203473E4,3.0854041E4,1.4968623E3,2.9966963E4,5.229292E3,2.2000053E4,1.9129768E3,2.2534361E4,3.1402338E2,2.7958693E4,2.4477986E2,2.799538E4,2.8586602E3,1.301356E3,1.955064E2,2.7389049E4,2.5779146E3,4.6015083E3,6.277835E2,1.9733715E4,2.2663384E3,1.6112736E3,3.0170325E2],"tree_param":{"num_deleted":"0","num_feature":"14","num_nodes":"31","size_leaf_vector":"0"}},{"base_weights":[-7.072741E-1,-9.533248E-1,-4.2918995E-1,-1.0639875E0,-8.445816E-1,-6.066675E-1,-2.4914706E-1,-1.0828269E0,-8.3263075E-1,-8.723947E-1,-4.8793122E-1,-6.3245016E-1,6.9818966E-2,-2.940248E-1,3.797643E-1,-1.1412985E0,-1.0298258E0,-8.507257E-1,7.973968E-1,-8.9027643E-1,-3.8998508E-1,-5.4971415E-1,2.3126104E-1,-6.6377175E-1,-1.6883191E-1,1.0902256E-3,8.861796E-1,-3.7688777E-1,5.3753275E-3,2.4992712E-1,9.353596E-1],"categories":[],"categories_nodes":[],"categories_segments":[],"categories_sizes":[],"default_left":[true,true,true,true,true,true,true,true,false,true,false,true,false,true,true,false,false,false,false,false,false,false,false,false,false,false,false,false,false,false,false],"id":5,"left_children":[1,3,5,7,9,11,13,15,17,19,21,23,25,27,29,-1,-1,-1,-1,-1,-1,-1,-1,-1,-1,-1,-1,-1,-1,-1,-1],"loss_changes":[9.32307E3,8.690781E2,2.0438945E3,1.5525781E2,3.6132227E2,5.6189746E2,8.964192E2,1.01484375E2,8.0376465E1,2.9147266E2,1.17453735E2,4.5049512E2,6.6405716E1,7.354009E2,1.52379E2,0E0,0E0,0E0,0E0,0E0,0E0,0E0,0E0,0E0,0E0,0E0,0E0,0E0,0E0,0E0,0E0],"parents":[2147483647,0,0,1,1,2,2,3,3,4,4,5,5,6,6,7,7,8,8,9,9,10,10,11,11,12,12,13,13,14,14],"right_children":[2,4,6,8,10,12,14,16,18,20,22,24,26,28,30,-1,-1,-1,-1,-1,-1,-1,-1,-1,-1,-1,-1,-1,-1,-1,-1],"split_conditions":[-8.5E0,-1.45E1,-2.5E0,9.6632704E-2,2.007799E-1,2.5767404E-1,2.6431447E-1,-1.85E1,9E-1,1.5765107E-1,5.488883E-1,2.525924E-1,5.757097E-1,6.5E0,1.7127185E-1,-1.7119479E-1,-1.5447387E-1,-1.2760887E-1,1.1960952E-1,-1.3354146E-1,-5.8497764E-2,-8.2457125E-2,3.468916E-2,-9.956577E-2,-2.5324788E-2,1.6353386E-4,1.3292696E-1,-5.653317E-2,8.0629915E-4,3.7489068E-2,1.4030394E-1],"split_indices":[11,11,11,12,7,0,6,11,12,12,7,6,0,11,3,0,0,0,0,0,0,0,0,0,0,0,0,0,0,0,0],"split_type":[0,0,0,0,0,0,0,0,0,0,0,0,0,0,0,0,0,0,0,0,0,0,0,0,0,0,0,0,0,0,0],"sum_hessian":[1.362617E5,7.229349E4,6.3968207E4,3.5826152E4,3.6467344E4,3.2212404E4,3.1755803E4,3.312509E4,2.7010608E3,3.3827863E4,2.6394805E3,3.1029842E4,1.182563E3,2.9641203E4,2.1145984E3,1.5739967E4,1.7385125E4,2.6718784E3,2.9182455E1,3.261795E4,1.2099125E3,2.4308882E3,2.0859222E2,2.9065758E4,1.9640845E3,1.0916584E3,9.09045E1,2.3215693E4,6.4255107E3,1.7152185E3,3.993799E2],"tree_param":{"num_deleted":"0","num_feature":"14","num_nodes":"31","size_leaf_vector":"0"}},{"base_weights":[-6.3248533E-1,-8.968694E-1,-3.9487213E-1,-1.0066161E0,-8.0529904E-1,-5.4861295E-1,-2.1384929E-1,-1.0211095E0,-7.0113933E-1,-8.564501E-1,-6.2483233E-1,-6.0627764E-1,-2.602502E-1,-2.7356732E-1,2.4360752E-1,-1.0372697E0,-8.079122E-1,-7.293186E-1,7.18104E-1,-8.714329E-1,-4.266504E-1,-6.5352976E-1,2.232201E-1,-6.389715E-1,-1.8819857E-1,-3.3289453E-1,4.242109E-1,-3.0284926E-1,6.32502E-1,1.3606402E-1,8.932353E-1],"categories":[],"categories_nodes":[],"categories_segments":[],"categories_sizes":[],"default_left":[true,true,true,true,true,true,true,true,false,true,true,true,false,true,false,false,false,false,false,false,false,false,false,false,false,false,false,false,false,false,false],"id":6,"left_children":[1,3,5,7,9,11,13,15,17,19,21,23,25,27,29,-1,-1,-1,-1,-1,-1,-1,-1,-1,-1,-1,-1,-1,-1,-1,-1],"loss_changes":[8.1772227E3,6.183867E2,1.9079199E3,1.233457E2,3.095703E2,6.162959E2,8.60254E2,9.132617E1,5.1413696E1,1.6816797E2,1.8078955E2,4.221543E2,3.074143E2,7.3914844E2,2.539275E2,0E0,0E0,0E0,0E0,0E0,0E0,0E0,0E0,0E0,0E0,0E0,0E0,0E0,0E0,0E0,0E0],"parents":[2147483647,0,0,1,1,2,2,3,3,4,4,5,5,6,6,7,7,8,8,9,9,10,10,11,11,12,12,13,13,14,14],"right_children":[2,4,6,8,10,12,14,16,18,20,22,24,26,28,30,-1,-1,-1,-1,-1,-1,-1,-1,-1,-1,-1,-1,-1,-1,-1,-1],"split_conditions":[-9.5E0,-1.55E1,-2.5E0,1.349833E-1,-1.4353342E-2,1.13834776E-1,1.9064629E-1,2.0127481E-1,9E-1,3.359666E-1,4.0332794E-1,1.08769596E-1,4.2936164E-1,1.9074371E-1,4.4686383E-1,-1.5559046E-1,-1.2118683E-1,-1.093978E-1,1.0771561E-1,-1.3071494E-1,-6.399757E-2,-9.802947E-2,3.3483017E-2,-9.584573E-2,-2.8229786E-2,-4.9934182E-2,6.363164E-2,-4.542739E-2,9.4875306E-2,2.0409605E-2,1.3398531E-1],"split_indices":[11,11,11,12,5,10,10,7,12,3,6,12,10,12,10,0,0,0,0,0,0,0,0,0,0,0,0,0,0,0,0],"split_type":[0,0,0,0,0,0,0,0,0,0,0,0,0,0,0,0,0,0,0,0,0,0,0,0,0,0,0,0,0,0,0],"sum_hessian":[1.3017136E5,6.1613426E4,6.855794E4,2.8020725E4,3.3592703E4,3.7071477E4,3.1486457E4,2.6749262E4,1.2714624E3,2.6171086E4,7.421617E3,3.0892684E4,6.1787944E3,2.7851082E4,3.6353762E3,2.4860953E4,1.888308E3,1.2471854E3,2.427695E1,2.5288502E4,8.8258435E2,7.1789175E3,2.426997E2,2.8651592E4,2.2410908E3,5.586403E3,5.923915E2,2.6979826E4,8.712563E2,3.1200696E3,5.1530664E2],"tree_param":{"num_deleted":"0","num_feature":"14","num_nodes":"31","size_leaf_vector":"0"}},{"base_weights":[-5.652827E-1,-8.2472974E-1,-3.4373274E-1,-9.3997556E-1,-7.3105556E-1,-4.3293604E-1,-8.33502E-2,-9.602238E-1,-7.014892E-1,-7.445967E-1,-2.6258647E-2,-4.8261696E-1,-4.0815983E-2,-1.271213E-1,5.689941E-1,-9.623236E-1,9.677201E-1,-7.6402867E-1,-2.854423E-1,-7.696828E-1,-3.7491447E-1,-1.569243E-1,1.1206034E0,-5.388257E-1,-2.1027523E-1,-3.8792875E-1,7.197887E-2,-1.8716145E-1,2.8516445E-1,4.1657287E-1,1.338481E0],"categories":[],"categories_nodes":[],"categories_segments":[],"categories_sizes":[],"default_left":[true,true,true,true,true,true,true,true,false,true,false,true,false,true,false,false,false,false,false,false,false,false,false,false,false,false,false,false,false,false,false],"id":7,"left_children":[1,3,5,7,9,11,13,15,17,19,21,23,25,27,29,-1,-1,-1,-1,-1,-1,-1,-1,-1,-1,-1,-1,-1,-1,-1,-1],"loss_changes":[7.1526016E3,6.1808203E2,1.5590537E3,1.2341211E2,3.0177734E2,9.739453E2,4.891763E2,9.680469E1,5.22016E1,2.874414E2,8.966004E1,6.791592E2,2.2018958E2,3.9742288E2,1.2578897E2,0E0,0E0,0E0,0E0,0E0,0E0,0E0,0E0,0E0,0E0,0E0,0E0,0E0,0E0,0E0,0E0],"parents":[2147483647,0,0,1,1,2,2,3,3,4,4,5,5,6,6,7,7,8,8,9,9,10,10,11,11,12,12,13,13,14,14],"right_children":[2,4,6,8,10,12,14,16,18,20,22,24,26,28,30,-1,-1,-1,-1,-1,-1,-1,-1,-1,-1,-1,-1,-1,-1,-1,-1],"split_conditions":[-9.5E0,-1.55E1,1.5E0,9.6632704E-2,2.1340823E-1,1.4546141E-1,2.537899E-1,6.423193E-1,2.5511056E-1,2.2790416E-1,5.220636E-1,1.2927711E-1,1.2196936E-2,1.9749215E-1,5.3537166E-1,-1.4434855E-1,1.4515802E-1,-1.146043E-1,-4.2816345E-2,-1.1545243E-1,-5.6237172E-2,-2.3538647E-2,1.6809052E-1,-8.082385E-2,-3.1541288E-2,-5.8189314E-2,1.079683E-2,-2.8074218E-2,4.277467E-2,6.2485933E-2,2.0077215E-1],"split_indices":[11,11,11,12,12,5,7,3,12,7,12,3,12,3,7,0,0,0,0,0,0,0,0,0,0,0,0,0,0,0,0],"split_type":[0,0,0,0,0,0,0,0,0,0,0,0,0,0,0,0,0,0,0,0,0,0,0,0,0,0,0,0,0,0,0],"sum_hessian":[1.24439266E5,5.7316176E4,6.712309E4,2.5695006E4,3.1621168E4,4.9994902E4,1.7128188E4,2.3681363E4,2.0136432E3,3.1025031E4,5.961366E2,4.4372723E4,5.6221777E3,1.60519375E4,1.0762506E3,2.36561E4,2.5264362E1,1.7497826E3,2.6386063E2,2.905249E4,1.9725421E3,5.3593854E2,6.0198017E1,3.6780582E4,7.592142E3,1.3782715E3,4.2439062E3,1.4011957E4,2.0399805E3,8.995981E2,1.766525E2],"tree_param":{"num_deleted":"0","num_feature":"14","num_nodes":"31","size_leaf_vector":"0"}},{"base_weights":[-5.044792E-1,-7.3612165E-1,-2.7877578E-1,-8.605897E-1,-6.2355304E-1,-3.4943092E-1,1.5515577E-2,-8.82456E-1,-6.114068E-1,-6.387919E-1,1.673483E-1,-6.889551E-1,-2.9346856E-1,-3.3964017E-1,1.2480701E-1,-9.552615E-1,-8.184051E-1,-6.781595E-1,-2.6097172E-1,-6.5595347E-1,-7.7792616E-3,1.9596243E-2,1.1001067E0,-7.068669E-1,5.0024056E-1,-5.3845644E-1,-2.0968886E-1,-4.023216E-1,4.089139E-1,-8.096804E-3,4.3415943E-1],"categories":[],"categories_nodes":[],"categories_segments":[],"categories_sizes":[],"default_left":[true,true,true,true,true,false,false,true,false,true,false,true,false,true,true,false,false,false,false,false,false,false,false,false,false,false,false,false,false,false,false],"id":8,"left_children":[1,3,5,7,9,11,13,15,17,19,21,23,25,27,29,-1,-1,-1,-1,-1,-1,-1,-1,-1,-1,-1,-1,-1,-1,-1,-1],"loss_changes":[6.2285254E3,8.232363E2,1.2547329E3,1.5158008E2,3.722422E2,9.24376E2,4.535486E2,1.18896484E2,5.258539E1,3.2804102E2,8.052742E1,1.4700488E2,8.57354E2,1.2917728E2,3.6735965E2,0E0,0E0,0E0,0E0,0E0,0E0,0E0,0E0,0E0,0E0,0E0,0E0,0E0,0E0,0E0,0E0],"parents":[2147483647,0,0,1,1,2,2,3,3,4,4,5,5,6,6,7,7,8,8,9,9,10,10,11,11,12,12,13,13,14,14],"right_children":[2,4,6,8,10,12,14,16,18,20,22,24,26,28,30,-1,-1,-1,-1,-1,-1,-1,-1,-1,-1,-1,-1,-1,-1,-1,-1],"split_conditions":[-8.5E0,-1.45E1,-7.210107E-2,9.6632704E-2,4.091738E-1,2.8348897E-2,-8.179739E-3,-1.85E1,2.4217987E-1,3.748454E-1,5.990313E-1,4.8113364E-1,1.2121657E-2,2.8323877E-1,-7.131356E-2,-1.4328924E-1,-1.22760765E-1,-1.01723924E-1,-3.914576E-2,-9.839302E-2,-1.1668893E-3,2.9394366E-3,1.6501601E-1,-1.0603004E-1,7.5036086E-2,-8.0768466E-2,-3.145333E-2,-6.0348243E-2,6.1337087E-2,-1.2145207E-3,6.5123916E-2],"split_indices":[11,11,8,12,6,4,4,11,12,3,6,6,12,0,0,0,0,0,0,0,0,0,0,0,0,0,0,0,0,0,0],"split_type":[0,0,0,0,0,0,0,0,0,0,0,0,0,0,0,0,0,0,0,0,0,0,0,0,0,0,0,0,0,0,0],"sum_hessian":[1.1913506E5,5.8792883E4,6.0342184E4,2.7917562E4,3.087532E4,4.865954E4,1.1682644E4,2.5663035E4,2.2545264E3,3.0291857E4,5.834633E2,6.8838486E3,4.177569E4,2.7486064E3,8.934037E3,1.2004178E4,1.3658857E4,1.8930023E3,3.61524E2,2.948979E4,8.020682E2,5.045603E2,7.890303E1,6.7821016E3,1.0174706E2,1.0644298E4,3.1131393E4,2.5366577E3,2.1194878E2,6.249923E3,2.6841145E3],"tree_param":{"num_deleted":"0","num_feature":"14","num_nodes":"31","size_leaf_vector":"0"}},{"base_weights":[-4.4879135E-1,-7.219728E-1,-2.7384287E-1,-8.636504E-1,-6.517419E-1,-4.019069E-1,-1.1002425E-1,-8.8430566E-1,-6.0516983E-1,-7.010848E-1,-4.4610053E-1,-4.4728407E-1,-2.8220013E-2,-1.9363526E-1,1.76418E-1,-9.0388614E-1,-6.772901E-1,-6.4992064E-1,3.287988E-1,-7.2435814E-1,-3.5410288E-1,-4.6020803E-1,1.433061E0,-5.013324E-1,-1.8038662E-1,-8.107465E-2,1.0568403E0,-5.2692556E-1,-1.3742472E-1,-1.757147E-1,2.8486454E-1],"categories":[],"categories_nodes":[],"categories_segments":[],"categories_sizes":[],"default_left":[true,true,true,true,true,true,true,true,false,true,true,true,false,false,false,false,false,false,false,false,false,false,false,false,false,false,false,false,false,false,false],"id":9,"left_children":[1,3,5,7,9,11,13,15,17,19,21,23,25,27,29,-1,-1,-1,-1,-1,-1,-1,-1,-1,-1,-1,-1,-1,-1,-1,-1],"loss_changes":[5.4679395E3,4.4387305E2,1.4632305E3,7.848242E1,3.0274512E2,6.637783E2,7.3298425E2,5.493164E1,4.6119934E1,1.9424414E2,1.539524E2,5.0345605E2,2.432442E2,4.437364E2,2.6412546E2,0E0,0E0,0E0,0E0,0E0,0E0,0E0,0E0,0E0,0E0,0E0,0E0,0E0,0E0,0E0,0E0],"parents":[2147483647,0,0,1,1,2,2,3,3,4,4,5,5,6,6,7,7,8,8,9,9,10,10,11,11,12,12,13,13,14,14],"right_children":[2,4,6,8,10,12,14,16,18,20,22,24,26,28,30,-1,-1,-1,-1,-1,-1,-1,-1,-1,-1,-1,-1,-1,-1,-1,-1],"split_conditions":[-1.05E1,-1.75E1,-2.5E0,1.9746503E-1,2.1562774E-2,1.3564515E-1,3.7232433E-3,9.360397E-2,5.907614E-1,1.1744422E-1,4.7783366E-1,4.8465393E-2,5.9585035E-1,2.8548477E-2,7.87597E-3,-1.3558292E-1,-1.0159352E-1,-9.74881E-2,4.9319822E-2,-1.08653724E-1,-5.3115435E-2,-6.903121E-2,2.1495916E-1,-7.5199865E-2,-2.7057994E-2,-1.2161198E-2,1.5852605E-1,-7.9038836E-2,-2.061371E-2,-2.6357206E-2,4.2729683E-2],"split_indices":[11,11,11,7,5,7,5,12,7,12,4,12,7,4,12,0,0,0,0,0,0,0,0,0,0,0,0,0,0,0,0],"split_type":[0,0,0,0,0,0,0,0,0,0,0,0,0,0,0,0,0,0,0,0,0,0,0,0,0,0,0,0,0,0,0],"sum_hessian":[1.1441272E5,4.466513E4,6.9747586E4,1.4799216E4,2.9865916E4,3.9144895E4,3.0602693E4,1.3701872E4,1.0973439E3,2.4084516E4,5.781399E3,3.4906027E4,4.2388696E3,2.3688475E4,6.9142183E3,1.25148E4,1.1870715E3,1.0474594E3,4.988454E1,2.2569605E4,1.5149113E3,5.739069E3,4.2330013E1,2.9027006E4,5.8790195E3,4.0428623E3,1.9600755E2,3.4173767E3,2.0271098E4,1.627854E3,5.2863643E3],"tree_param":{"num_deleted":"0","num_feature":"14","num_nodes":"31","size_leaf_vector":"0"}},{"base_weights":[-3.986691E-1,-6.632515E-1,-2.3787506E-1,-7.8976804E-1,-5.7968843E-1,-2.745038E-1,2.7875528E-1,-7.962576E-1,1.3265567E-1,-6.0110486E-1,-5.8788728E-2,-4.0361556E-1,-1.4682728E-1,1.6086122E-1,7.468635E-1,-9.1583127E-1,-7.53613E-1,-1.887263E-2,2.2146058E0,-6.2577593E-1,-1.964319E-1,-1.8440157E-1,8.3833605E-1,-4.3264875E-1,1.0419767E-1,-3.8763586E-1,-6.402204E-2,-2.044254E-1,2.699878E-1,6.731546E-1,1.5120394E0],"categories":[],"categories_nodes":[],"categories_segments":[],"categories_sizes":[],"default_left":[true,true,true,true,true,true,false,false,true,true,false,true,false,false,true,false,false,false,false,false,false,false,false,false,false,false,false,false,false,false,false],"id":10,"left_children":[1,3,5,7,9,11,13,15,17,19,21,23,25,27,29,-1,-1,-1,-1,-1,-1,-1,-1,-1,-1,-1,-1,-1,-1,-1,-1],"loss_changes":[4.6813867E3,4.3929688E2,1.2953379E3,9.913281E1,2.794619E2,1.0535688E3,2.4999188E2,8.3075195E1,3.6772003E1,2.4012988E2,1.11775314E2,4.685752E2,6.408187E2,1.4441974E2,5.0391144E1,0E0,0E0,0E0,0E0,0E0,0E0,0E0,0E0,0E0,0E0,0E0,0E0,0E0,0E0,0E0,0E0],"parents":[2147483647,0,0,1,1,2,2,3,3,4,4,5,5,6,6,7,7,8,8,9,9,10,10,11,11,12,12,13,13,14,14],"right_children":[2,4,6,8,10,12,14,16,18,20,22,24,26,28,30,-1,-1,-1,-1,-1,-1,-1,-1,-1,-1,-1,-1,-1,-1,-1,-1],"split_conditions":[-1.05E1,-1.65E1,1.7216241E-1,4.8317227E-1,3.0919075E-1,-3.5E0,4.1266382E-1,7.782219E-3,2.6776323E-1,2.8276986E-1,5.2532154E-1,2.8378615E-1,1.7621487E-2,-1.0123994E-1,3.422538E-1,-1.373747E-1,-1.1304195E-1,-2.8308947E-3,3.3219087E-1,-9.386639E-2,-2.9464787E-2,-2.7660238E-2,1.2575041E-1,-6.489731E-2,1.5629651E-2,-5.814538E-2,-9.603307E-3,-3.066381E-2,4.049817E-2,1.009732E-1,2.2680593E-1],"split_indices":[11,11,0,3,10,11,0,12,7,3,10,10,12,6,6,0,0,0,0,0,0,0,0,0,0,0,0,0,0,0,0],"split_type":[0,0,0,0,0,0,0,0,0,0,0,0,0,0,0,0,0,0,0,0,0,0,0,0,0,0,0,0,0,0,0],"sum_hessian":[1.1004092E5,4.1594734E4,6.844619E4,1.6541719E4,2.5053016E4,6.391512E4,4.531069E3,1.642629E4,1.15428505E2,2.4063508E4,9.895078E2,3.177787E4,3.2137252E4,3.6205654E3,9.105035E2,4.312829E3,1.211346E4,1.0852107E2,6.9074345E0,2.268025E4,1.3832572E3,8.6867316E2,1.2083468E2,3.005943E4,1.7184395E3,8.222232E3,2.3915021E4,8.326171E2,2.7879482E3,8.3221643E2,7.828707E1],"tree_param":{"num_deleted":"0","num_feature":"14","num_nodes":"31","size_leaf_vector":"0"}},{"base_weights":[-3.529973E-1,-6.0728633E-1,-2.0619002E-1,-7.594676E-1,-5.359487E-1,-2.3232539E-1,4.803365E-1,-7.828304E-1,-4.771626E-1,-5.558298E-1,1.8428123E-2,-2.6364896E-1,2.9747435E-1,3.8077813E-1,1.1344413E0,-7.931478E-1,-2.3938482E-1,-5.243499E-1,4.0265432E-1,-5.850389E-1,-1.9529222E-1,-7.951033E-2,1.0221374E0,-3.09739E-1,6.932838E-2,1.4386798E-1,7.314333E-1,2.3909499E-1,7.737528E-1,1.004559E0,1.5632399E0],"categories":[],"categories_nodes":[],"categories_segments":[],"categories_sizes":[],"default_left":[true,true,true,true,true,true,false,true,false,true,false,true,false,true,true,false,false,false,false,false,false,false,false,false,false,false,false,false,false,false,false],"id":11,"left_children":[1,3,5,7,9,11,13,15,17,19,21,23,25,27,29,-1,-1,-1,-1,-1,-1,-1,-1,-1,-1,-1,-1,-1,-1,-1,-1],"loss_changes":[3.9631816E3,4.2143945E2,1.2078062E3,8.140527E1,2.9163525E2,1.0761279E3,1.603357E2,6.4009766E1,3.9662506E1,2.6888184E2,9.022431E1,9.3958984E2,2.4120529E2,1.19194916E2,1.6564056E1,0E0,0E0,0E0,0E0,0E0,0E0,0E0,0E0,0E0,0E0,0E0,0E0,0E0,0E0,0E0,0E0],"parents":[2147483647,0,0,1,1,2,2,3,3,4,4,5,5,6,6,7,7,8,8,9,9,10,10,11,11,12,12,13,13,14,14],"right_children":[2,4,6,8,10,12,14,16,18,20,22,24,26,28,30,-1,-1,-1,-1,-1,-1,-1,-1,-1,-1,-1,-1,-1,-1,-1,-1],"split_conditions":[-1.05E1,-1.75E1,3.6072427E-1,1.9746503E-1,3.2816404E-1,2.8671488E-1,5.7903093E-1,2.2168803E-1,5.907614E-1,1.06524825E-1,6.1968935E-1,5.5E0,4.5965558E-1,2.991832E-2,-5.5574864E-2,-1.18972175E-1,-3.5907723E-2,-7.865249E-2,6.039815E-2,-8.775584E-2,-2.9293833E-2,-1.192655E-2,1.5332061E-1,-4.6460852E-2,1.0399258E-2,2.1580199E-2,1.0971499E-1,3.586425E-2,1.16062924E-1,1.5068386E-1,2.34486E-1],"split_indices":[11,11,3,7,7,6,3,12,7,12,7,11,6,6,2,0,0,0,0,0,0,0,0,0,0,0,0,0,0,0,0],"split_type":[0,0,0,0,0,0,0,0,0,0,0,0,0,0,0,0,0,0,0,0,0,0,0,0,0,0,0,0,0,0,0],"sum_hessian":[1.0616424E5,3.8856562E4,6.730768E4,1.239827E4,2.6458295E4,6.483995E4,2.46773E3,1.1449006E4,9.492641E2,2.5542291E4,9.160036E2,6.1220867E4,3.619082E3,2.1431177E3,3.246122E2,1.1235244E4,2.1376196E2,9.0132715E2,4.7936996E1,2.3627479E4,1.9148118E3,8.3540814E2,8.059543E1,5.3777203E4,7.443662E3,2.673934E3,9.4514813E2,1.5763784E3,5.667393E2,2.517119E2,7.290031E1],"tree_param":{"num_deleted":"0","num_feature":"14","num_nodes":"31","size_leaf_vector":"0"}},{"base_weights":[-3.1155467E-1,-4.951811E-1,-1.330622E-1,-6.255192E-1,-3.7745002E-1,-1.6149154E-1,4.9217948E-1,-6.3202065E-1,8.37094E-1,-4.2734686E-1,-7.1115E-2,-2.2126284E-1,1.1277193E-1,3.261685E-1,9.7610736E-1,-6.440002E-1,6.1261274E-2,4.9609652E-1,1.7631484E0,-4.672925E-1,-8.561293E-2,-1.0851382E-1,1.315289E0,-2.4795713E-1,3.802118E-1,5.3468216E-2,8.9521945E-1,1.4130238E-1,5.8594424E-1,5.5520666E-1,1.1634074E0],"categories":[],"categories_nodes":[],"categories_segments":[],"categories_sizes":[],"default_left":[true,true,true,true,true,true,false,true,false,true,false,true,false,true,false,false,false,false,false,false,false,false,false,false,false,false,false,false,false,false,false],"id":12,"left_children":[1,3,5,7,9,11,13,15,17,19,21,23,25,27,29,-1,-1,-1,-1,-1,-1,-1,-1,-1,-1,-1,-1,-1,-1,-1,-1],"loss_changes":[3.3670117E3,7.7677344E2,9.2607385E2,2.2903223E2,4.066687E2,8.168883E2,1.8172125E2,1.9873535E2,3.2842323E1,3.122954E2,1.9344238E2,6.570017E2,4.1372226E2,8.101312E1,4.4942383E1,0E0,0E0,0E0,0E0,0E0,0E0,0E0,0E0,0E0,0E0,0E0,0E0,0E0,0E0,0E0,0E0],"parents":[2147483647,0,0,1,1,2,2,3,3,4,4,5,5,6,6,7,7,8,8,9,9,10,10,11,11,12,12,13,13,14,14],"right_children":[2,4,6,8,10,12,14,16,18,20,22,24,26,28,30,-1,-1,-1,-1,-1,-1,-1,-1,-1,-1,-1,-1,-1,-1,-1,-1],"split_conditions":[-7.5E0,-1.35E1,3.19236E-1,4.6839505E-1,1.403237E-1,4.8465393E-2,5.214193E-1,4.110211E-1,5.97137E-1,1.4829397E-1,5.7001853E-1,3.3040038E-1,2.896644E-1,1.3012199E-3,-4.6387404E-2,-9.660003E-2,9.189191E-3,7.4414484E-2,2.6447228E-1,-7.009388E-2,-1.284194E-2,-1.6277073E-2,1.9729336E-1,-3.719357E-2,5.7031773E-2,8.020232E-3,1.3428292E-1,2.1195358E-2,8.789164E-2,8.3281E-2,1.7451112E-1],"split_indices":[11,11,7,4,10,12,7,6,4,5,10,10,12,3,6,0,0,0,0,0,0,0,0,0,0,0,0,0,0,0,0],"split_type":[0,0,0,0,0,0,0,0,0,0,0,0,0,0,0,0,0,0,0,0,0,0,0,0,0,0,0,0,0,0,0],"sum_hessian":[1.0272919E5,5.0635492E4,5.209369E4,2.402904E4,2.6606455E4,4.9828754E4,2.2649404E3,2.3923266E4,1.0577302E2,2.287939E4,3.727065E3,4.0912684E4,8.916067E3,1.6876633E3,5.7727716E2,2.3516977E4,4.062893E2,7.842909E1,2.7343931E1,2.048456E4,2.3948293E3,3.6300642E3,9.7000725E1,3.917465E4,1.7380377E3,8.288898E3,6.2716864E2,9.8689545E2,7.007679E2,1.7899773E2,3.9827945E2],"tree_param":{"num_deleted":"0","num_feature":"14","num_nodes":"31","size_leaf_vector":"0"}},{"base_weights":[-2.7417415E-1,-5.2989835E-1,-1.6296475E-1,-7.0172864E-1,-4.6930566E-1,-2.288275E-1,7.9837166E-2,-7.082796E-1,4.775016E-1,-4.9950433E-1,-4.9057513E-2,-4.9864826E-1,-1.7260651E-1,-2.5156436E-2,3.8547334E-1,-7.144995E-1,4.1832903E-1,6.0989045E-2,1.6949725E0,-6.69662E-1,-4.3215853E-1,-1.2757654E-1,8.9834297E-1,-5.7813954E-1,-2.0810254E-1,-2.4466254E-1,4.54782E-2,-7.482475E-2,5.0330704E-1,9.144677E-2,5.705475E-1],"categories":[],"categories_nodes":[],"categories_segments":[],"categories_sizes":[],"default_left":[true,false,true,true,true,false,true,true,true,true,false,true,true,false,false,false,false,false,false,false,false,false,false,false,false,false,false,false,false,false,false],"id":13,"left_children":[1,3,5,7,9,11,13,15,17,19,21,23,25,27,29,-1,-1,-1,-1,-1,-1,-1,-1,-1,-1,-1,-1,-1,-1,-1,-1],"loss_changes":[2.834855E3,3.1422754E2,1.1110238E3,6.1167236E1,2.834746E2,8.289343E2,4.7574622E2,5.5174072E1,2.2259048E1,2.3853564E2,1.1160365E2,2.1751367E2,7.1073987E2,2.89695E2,2.062248E2,0E0,0E0,0E0,0E0,0E0,0E0,0E0,0E0,0E0,0E0,0E0,0E0,0E0,0E0,0E0,0E0],"parents":[2147483647,0,0,1,1,2,2,3,3,4,4,5,5,6,6,7,7,8,8,9,9,10,10,11,11,12,12,13,13,14,14],"right_children":[2,4,6,8,10,12,14,16,18,20,22,24,26,28,30,-1,-1,-1,-1,-1,-1,-1,-1,-1,-1,-1,-1,-1,-1,-1,-1],"split_conditions":[-1.15E1,1.2121657E-2,1.009251E-1,5.291057E-1,2.6349336E-1,4.9701396E-2,3.6772903E-2,5.170125E-1,-7.3077574E-2,-1.85E1,5.388955E-1,-5.378969E-2,1.8931033E-2,4.423449E-1,1.2958696E-1,-1.07174926E-1,6.2749356E-2,9.148357E-3,2.5424588E-1,-1.004493E-1,-6.4823784E-2,-1.9136483E-2,1.3475145E-1,-8.6720936E-2,-3.1215383E-2,-3.669938E-2,6.82173E-3,-1.1223713E-2,7.549606E-2,1.3717016E-2,8.558213E-2],"split_indices":[11,12,3,6,3,4,6,10,1,11,3,2,10,3,4,0,0,0,0,0,0,0,0,0,0,0,0,0,0,0,0],"split_type":[0,0,0,0,0,0,0,0,0,0,0,0,0,0,0,0,0,0,0,0,0,0,0,0,0,0,0,0,0,0,0],"sum_hessian":[9.968423E4,3.0210924E4,6.94733E4,7.873233E3,2.2337691E4,5.4649156E4,1.4824142E4,7.830134E3,4.3099354E1,2.083996E4,1.4977307E3,9.422067E3,4.522709E4,1.1034452E4,3.78969E3,7.787506E3,4.262777E1,3.289548E1,1.0203875E1,5.9067837E3,1.4933177E4,1.3839006E3,1.1383013E2,7.3972427E3,2.0248243E3,3.3994918E4,1.1232173E4,1.0087247E4,9.4720435E2,1.4645153E3,2.3251748E3],"tree_param":{"num_deleted":"0","num_feature":"14","num_nodes":"31","size_leaf_vector":"0"}},{"base_weights":[-2.4031274E-1,-3.926352E-1,-7.413039E-2,-5.728235E-1,-3.1865874E-1,-1.20104395E-1,2.8246218E-1,-6.0424775E-1,-2.560144E-1,-3.905782E-1,-1.261149E-1,-1.8352501E-1,9.8535806E-2,1.4976276E-1,4.636868E-1,-6.3979584E-1,-3.659662E-1,-3.1491333E-1,4.7059524E-1,-5.6459624E-1,-3.3128786E-1,-1.4856063E-1,1.0273222E0,-4.4517493E-1,-1.2472075E-1,-1.4965655E-1,2.3599337E-1,8.250094E-2,5.745881E-1,2.2681533E-1,6.108732E-1],"categories":[],"categories_nodes":[],"categories_segments":[],"categories_sizes":[],"default_left":[true,true,true,true,true,true,true,true,true,false,true,false,false,true,false,false,false,false,false,false,false,false,false,false,false,false,false,false,false,false,false],"id":14,"left_children":[1,3,5,7,9,11,13,15,17,19,21,23,25,27,29,-1,-1,-1,-1,-1,-1,-1,-1,-1,-1,-1,-1,-1,-1,-1,-1],"loss_changes":[2.4582744E3,6.752368E2,7.614652E2,1.4665576E2,4.9742236E2,5.705089E2,1.27495514E2,1.13398926E2,5.7172966E1,2.6966577E2,2.5312094E2,4.906371E2,3.156545E2,8.749657E1,7.80202E1,0E0,0E0,0E0,0E0,0E0,0E0,0E0,0E0,0E0,0E0,0E0,0E0,0E0,0E0,0E0,0E0],"parents":[2147483647,0,0,1,1,2,2,3,3,4,4,5,5,6,6,7,7,8,8,9,9,10,10,11,11,12,12,13,13,14,14],"right_children":[2,4,6,8,10,12,14,16,18,20,22,24,26,28,30,-1,-1,-1,-1,-1,-1,-1,-1,-1,-1,-1,-1,-1,-1,-1,-1],"split_conditions":[-6.5E0,-1.55E1,1.5551543E-1,9.6632704E-2,-5.9470776E-2,-1.5296715E-1,-1.5247157E-2,9.51455E-2,1.08963296E-1,8.032259E-3,3.7589744E-1,1.6801876E-1,1.2852691E-1,7.335007E-2,1.3872E-1,-9.596938E-2,-5.489493E-2,-4.7237E-2,7.058929E-2,-8.468944E-2,-4.9693182E-2,-2.2284094E-2,1.5409833E-1,-6.6776246E-2,-1.8708114E-2,-2.2448484E-2,3.539901E-2,1.23751415E-2,8.618822E-2,3.40223E-2,9.163099E-2],"split_indices":[11,11,5,12,5,8,3,7,2,12,4,4,4,12,4,0,0,0,0,0,0,0,0,0,0,0,0,0,0,0,0],"split_type":[0,0,0,0,0,0,0,0,0,0,0,0,0,0,0,0,0,0,0,0,0,0,0,0,0,0,0,0,0,0,0],"sum_hessian":[9.711407E4,5.0669305E4,4.6444766E4,1.47457E4,3.5923605E4,4.1141254E4,5.3035083E3,1.3414237E4,1.3314629E3,2.6153611E4,9.769994E3,3.1890879E4,9.250377E3,3.0627068E3,2.2408018E3,1.1671356E4,1.7428811E3,1.2321514E3,9.9311485E1,6.644219E3,1.9509393E4,9.584355E3,1.8563895E2,5.850863E3,2.6040016E4,3.2970886E3,5.953288E3,2.6451062E3,4.1760065E2,8.597392E2,1.3810625E3],"tree_param":{"num_deleted":"0","num_feature":"14","num_nodes":"31","size_leaf_vector":"0"}},{"base_weights":[-2.1029887E-1,-3.278031E-1,-2.9787172E-2,-5.0376064E-1,-2.5576556E-1,-7.242621E-2,3.1909856E-1,-5.3877634E-1,-1.5794013E-1,-2.7399558E-1,4.6668348E-1,-2.7863392E-1,-2.981229E-3,4.8275378E-2,4.7650725E-1,-5.651855E-1,-2.1517818E-1,-2.6359192E-1,4.1599348E-1,-4.6910352E-1,-2.0965607E-1,1.00098655E-1,6.527018E-1,-5.8067423E-1,-2.2949937E-1,-5.168272E-2,2.9444823E-1,-2.9975203E-1,2.171847E-1,4.0265787E-1,1.0037823E0],"categories":[],"categories_nodes":[],"categories_segments":[],"categories_sizes":[],"default_left":[true,true,true,true,true,false,false,true,true,false,false,false,true,true,false,false,false,false,false,false,false,false,false,false,false,false,false,false,false,false,false],"id":15,"left_children":[1,3,5,7,9,11,13,15,17,19,21,23,25,27,29,-1,-1,-1,-1,-1,-1,-1,-1,-1,-1,-1,-1,-1,-1,-1,-1],"loss_changes":[2.009835E3,7.27375E2,5.558263E2,2.0178516E2,5.3647925E2,4.767713E2,1.7344238E2,1.2924414E2,9.313945E1,4.9854688E2,6.83105E1,1.2434546E2,3.608028E2,8.805606E1,9.979639E1,0E0,0E0,0E0,0E0,0E0,0E0,0E0,0E0,0E0,0E0,0E0,0E0,0E0,0E0,0E0,0E0],"parents":[2147483647,0,0,1,1,2,2,3,3,4,4,5,5,6,6,7,7,8,8,9,9,10,10,11,11,12,12,13,13,14,14],"right_children":[2,4,6,8,10,12,14,16,18,20,22,24,26,28,30,-1,-1,-1,-1,-1,-1,-1,-1,-1,-1,-1,-1,-1,-1,-1,-1],"split_conditions":[-4.5E0,-1.45E1,8.133313E-2,1.690827E-1,3.239835E-1,1.7621487E-2,3.823187E-2,1.12588026E-1,1.7272669E-1,8.032259E-3,1.0632951E-2,-8.5691154E-2,1.5791848E-1,-1.5208071E-1,4.270015E-1,-8.4777825E-2,-3.2276727E-2,-3.953879E-2,6.2399026E-2,-7.036553E-2,-3.1448413E-2,1.5014798E-2,9.790527E-2,-8.710114E-2,-3.442491E-2,-7.7524087E-3,4.4167235E-2,-4.4962805E-2,3.2577705E-2,6.0398683E-2,1.5056735E-1],"split_indices":[11,11,0,5,0,12,7,12,3,12,7,6,10,3,0,0,0,0,0,0,0,0,0,0,0,0,0,0,0,0,0],"split_type":[0,0,0,0,0,0,0,0,0,0,0,0,0,0,0,0,0,0,0,0,0,0,0,0,0,0,0,0,0,0,0],"sum_hessian":[9.475432E4,5.7393293E4,3.736103E4,1.6669852E4,4.072344E4,3.329293E4,4.0680996E3,1.51366455E4,1.5332059E3,3.972174E4,1.0017031E3,8.386703E3,2.4906227E4,1.495825E3,2.5722747E3,1.3993849E4,1.1427976E3,1.2953027E3,2.3790327E2,9.8489E3,2.9872838E4,3.3771292E2,6.639902E2,1.1719102E3,7.2147935E3,2.1402568E4,3.5036587E3,4.885084E2,1.0073165E3,2.2578123E3,3.1446228E2],"tree_param":{"num_deleted":"0","num_feature":"14","num_nodes":"31","size_leaf_vector":"0"}},{"base_weights":[-1.8357414E-1,-4.1943187E-1,-1.09339476E-1,-4.490871E-1,-1.9650705E-2,-1.4032143E-1,3.1516448E-1,-4.5766464E-1,6.4425236E-1,-8.587268E-2,1.1265162E0,-1.7552744E-1,2.1589999E-1,2.3483397E-1,9.265678E-1,-4.8929596E-1,-1.679792E-1,-7.733275E-2,8.8009036E-1,-1.7191891E-1,4.6305004E-1,3.9028636E-1,1.5282447E0,-1.8902767E-1,6.9306874E-1,1.6232927E-1,1.4987209E0,1.5017189E-1,5.8851504E-1,7.93872E-1,1.5821728E0],"categories":[],"categories_nodes":[],"categories_segments":[],"categories_sizes":[],"default_left":[true,true,true,true,false,true,false,true,false,true,false,true,false,true,false,false,false,false,false,false,false,false,false,false,false,false,false,false,false,false,false],"id":16,"left_children":[1,3,5,7,9,11,13,15,17,19,21,23,25,27,29,-1,-1,-1,-1,-1,-1,-1,-1,-1,-1,-1,-1,-1,-1,-1,-1],"loss_changes":[1.6224502E3,2.629934E2,9.2705524E2,1.9397119E2,1.1645161E2,8.2387683E2,2.3526804E2,1.8768555E2,2.7496086E1,6.857509E1,2.4189629E1,7.0116235E2,4.0582352E2,1.26847046E2,4.7153595E1,0E0,0E0,0E0,0E0,0E0,0E0,0E0,0E0,0E0,0E0,0E0,0E0,0E0,0E0,0E0,0E0],"parents":[2147483647,0,0,1,1,2,2,3,3,4,4,5,5,6,6,7,7,8,8,9,9,10,10,11,11,12,12,13,13,14,14],"right_children":[2,4,6,8,10,12,14,16,18,20,22,24,26,28,30,-1,-1,-1,-1,-1,-1,-1,-1,-1,-1,-1,-1,-1,-1,-1,-1],"split_conditions":[-1.25E1,2.2790416E-1,2.633651E-1,4.328503E-1,6.1973274E-1,1.0197583E-1,5.305561E-1,9.360397E-2,1.6993087E-2,1.9252022E-1,7.6197386E-2,3.6295477E-1,5.152074E-1,-1.2543413E-2,6.831768E-1,-7.3394395E-2,-2.519688E-2,-1.1599913E-2,1.3201356E-1,-2.5787838E-2,6.945751E-2,5.8542956E-2,2.2923672E-1,-2.8354151E-2,1.0396031E-1,2.4349391E-2,2.2480814E-1,2.2525784E-2,8.827726E-2,1.19080804E-1,2.3732592E-1],"split_indices":[11,7,6,0,7,12,6,12,12,10,12,4,12,2,6,0,0,0,0,0,0,0,0,0,0,0,0,0,0,0,0],"split_type":[0,0,0,0,0,0,0,0,0,0,0,0,0,0,0,0,0,0,0,0,0,0,0,0,0,0,0,0,0,0,0],"sum_hessian":[9.2666375E4,2.2182783E4,7.048359E4,2.0650809E4,1.5319731E3,6.568995E4,4.7936406E3,2.0490637E4,1.6017334E2,1.4491697E3,8.280345E1,5.978209E4,5.907864E3,4.2381826E3,5.5545844E2,1.847286E4,2.0177764E3,3.9620377E1,1.20552956E2,1.2533828E3,1.957869E2,2.9927734E1,5.2875717E1,5.8867914E4,9.141771E2,5.672122E3,2.3574182E2,3.4207646E3,8.174178E2,4.6379608E2,9.1662384E1],"tree_param":{"num_deleted":"0","num_feature":"14","num_nodes":"31","size_leaf_vector":"0"}},{"base_weights":[-1.5965907E-1,-2.621882E-1,-1.0016655E-2,-2.98303E-1,7.053537E-2,-5.6151062E-2,2.7178296E-1,-3.1121072E-1,4.9539462E-1,-3.079697E-3,6.8338954E-1,-8.918721E-2,3.3944625E-1,2.0864782E-1,7.423468E-1,-3.261497E-1,3.500048E-1,3.330438E-1,1.2800565E0,-8.094192E-2,4.222069E-1,4.41034E-1,1.1656401E0,-1.1569101E-1,3.650308E-1,2.6202297E-1,6.3846153E-1,1.358878E-1,5.4307956E-1,5.1063764E-1,8.9907527E-1],"categories":[],"categories_nodes":[],"categories_segments":[],"categories_sizes":[],"default_left":[true,true,true,true,false,true,true,true,false,true,true,true,true,false,false,false,false,false,false,false,false,false,false,false,false,false,false,false,false,false,false],"id":17,"left_children":[1,3,5,7,9,11,13,15,17,19,21,23,25,27,29,-1,-1,-1,-1,-1,-1,-1,-1,-1,-1,-1,-1,-1,-1,-1,-1],"loss_changes":[1.3950999E3,6.4840356E2,4.8066962E2,4.9882764E2,2.383997E2,4.1524768E2,1.5437408E2,4.7323828E2,9.885149E1,1.5628209E2,6.571564E1,3.5305002E2,5.6526825E1,1.11554535E2,2.187201E1,0E0,0E0,0E0,0E0,0E0,0E0,0E0,0E0,0E0,0E0,0E0,0E0,0E0,0E0,0E0,0E0],"parents":[2147483647,0,0,1,1,2,2,3,3,4,4,5,5,6,6,7,7,8,8,9,9,10,10,11,11,12,12,13,13,14,14],"right_children":[2,4,6,8,10,12,14,16,18,20,22,24,26,28,30,-1,-1,-1,-1,-1,-1,-1,-1,-1,-1,-1,-1,-1,-1,-1,-1],"split_conditions":[-4.5E0,2.2423895E-1,1.8477857E-1,4.293757E-1,4.921326E-1,1.05E1,1.881839E-1,2.197386E-1,5.960225E-1,1.3222446E-1,-8.642325E-2,2.6667032E-1,4.4281047E-2,4.1553462E-1,3.825402E-2,-4.8922457E-2,5.250072E-2,4.9956575E-2,1.9200848E-1,-1.2141289E-2,6.333104E-2,6.61551E-2,1.7484602E-1,-1.7353652E-2,5.4754622E-2,3.9303448E-2,9.5769234E-2,2.0383172E-2,8.1461936E-2,7.659565E-2,1.3486129E-1],"split_indices":[11,3,3,10,3,11,7,12,10,5,7,5,12,3,9,0,0,0,0,0,0,0,0,0,0,0,0,0,0,0,0],"split_type":[0,0,0,0,0,0,0,0,0,0,0,0,0,0,0,0,0,0,0,0,0,0,0,0,0,0,0,0,0,0,0],"sum_hessian":[9.092835E4,5.3957816E4,3.697054E4,4.867463E4,5.2831855E3,3.1770137E4,5.2004E3,4.7896312E4,7.78319E2,4.7175195E3,5.6566595E2,2.9322227E4,2.4479114E3,4.5864795E3,6.139206E2,4.6838586E4,1.0577267E3,6.4606836E2,1.3225061E2,3.9881682E3,7.2935126E2,3.7774457E2,1.879214E2,2.7706299E4,1.6159282E3,1.9459323E3,5.0197906E2,3.7680886E3,8.1839087E2,2.4942534E2,3.6449527E2],"tree_param":{"num_deleted":"0","num_feature":"14","num_nodes":"31","size_leaf_vector":"0"}},{"base_weights":[-1.3867123E-1,-3.290213E-1,-6.9433354E-2,-3.4800798E-1,3.92933E-1,-1.1147198E-1,2.2669798E-1,-5.246577E-1,-2.8409553E-1,1.8507983E-1,9.9878365E-1,-3.6674157E-1,-5.9599847E-2,1.5962684E-1,7.6812625E-1,-6.7789763E-1,-4.604479E-1,-3.1769997E-1,7.085448E-2,1.3745098E-1,1.7460793E0,6.970622E-1,1.6277518E0,-4.146575E-1,6.398858E-2,-3.4977895E-1,-1.9354384E-2,-1.9145045E-1,2.3981196E-1,6.154912E-1,1.2866198E0],"categories":[],"categories_nodes":[],"categories_segments":[],"categories_sizes":[],"default_left":[true,true,true,true,false,false,false,false,true,true,true,true,false,false,false,false,false,false,false,false,false,false,false,false,false,false,false,false,false,false,false],"id":18,"left_children":[1,3,5,7,9,11,13,15,17,19,21,23,25,27,29,-1,-1,-1,-1,-1,-1,-1,-1,-1,-1,-1,-1,-1,-1,-1,-1],"loss_changes":[1.1771998E3,3.2670532E2,8.154269E2,2.6194116E2,7.675249E1,7.5947546E2,2.9557397E2,6.0361572E1,2.0337866E2,3.3672314E1,2.8439133E1,1.9995056E2,5.567266E2,2.0404242E2,7.021753E1,0E0,0E0,0E0,0E0,0E0,0E0,0E0,0E0,0E0,0E0,0E0,0E0,0E0,0E0,0E0,0E0],"parents":[2147483647,0,0,1,1,2,2,3,3,4,4,5,5,6,6,7,7,8,8,9,9,10,10,11,11,12,12,13,13,14,14],"right_children":[2,4,6,8,10,12,14,16,18,20,22,24,26,28,30,-1,-1,-1,-1,-1,-1,-1,-1,-1,-1,-1,-1,-1,-1,-1,-1],"split_conditions":[-1.15E1,3.7885374E-1,1.2003635E-1,-1.85E1,5.2453613E-1,5.924434E-2,4.9425673E-1,3.215467E-2,2.1345259E-1,4.8925507E-1,-2.3227686E-1,1.4839044E-1,-7.729033E-2,-1.4816597E-1,6.6579235E-1,-1.0168465E-1,-6.906719E-2,-4.7654998E-2,1.0628172E-2,2.0617647E-2,2.619119E-1,1.0455933E-1,2.4416278E-1,-6.2198628E-2,9.598288E-3,-5.2466843E-2,-2.9031578E-3,-2.8717568E-2,3.5971794E-2,9.232368E-2,1.9299297E-1],"split_indices":[11,6,7,11,6,4,7,12,10,7,2,2,6,6,7,0,0,0,0,0,0,0,0,0,0,0,0,0,0,0,0],"split_type":[0,0,0,0,0,0,0,0,0,0,0,0,0,0,0,0,0,0,0,0,0,0,0,0,0,0,0,0,0,0,0],"sum_hessian":[8.932168E4,2.3823078E4,6.5498605E4,2.3213115E4,6.0996313E2,5.735688E4,8.141725E3,6.165334E3,1.7047781E4,4.5512567E2,1.5483748E2,9.685785E3,4.7671094E4,7.245465E3,8.9626E2,1.8177135E3,4.3476206E3,1.5573485E4,1.474295E3,4.42706E2,1.2419689E1,1.060653E2,4.8772175E1,8.716201E3,9.695836E2,5.805366E3,4.1865727E4,1.3468997E3,5.8985654E3,6.9411285E2,2.0214713E2],"tree_param":{"num_deleted":"0","num_feature":"14","num_nodes":"31","size_leaf_vector":"0"}},{"base_weights":[-1.2015629E-1,-1.4243792E-1,3.9381438E-1,-2.2185105E-1,-7.4932184E-3,3.210192E-1,1.0065578E0,-2.4875726E-1,1.887387E-1,-7.376126E-2,1.660318E-1,8.1771344E-2,4.3974167E-1,5.8461046E-1,1.1875906E0,-4.2302835E-1,-1.918556E-1,-2.157652E-1,2.869146E-1,-9.5166676E-2,5.1424515E-1,1.2642322E-1,7.635275E-1,-1.6736548E-2,6.4271694E-1,3.4429473E-1,7.5890666E-1,8.6290546E-2,7.853014E-1,4.634158E-1,1.2794918E0],"categories":[],"categories_nodes":[],"categories_segments":[],"categories_sizes":[],"default_left":[true,true,false,true,true,false,false,false,false,true,false,true,true,false,false,false,false,false,false,false,false,false,false,false,false,false,false,false,false,false,false],"id":19,"left_children":[1,3,5,7,9,11,13,15,17,19,21,23,25,27,29,-1,-1,-1,-1,-1,-1,-1,-1,-1,-1,-1,-1,-1,-1,-1,-1],"loss_changes":[1.00790784E3,9.0392334E2,1.6279492E2,5.8667285E2,3.5936243E2,9.28486E1,2.8932373E1,4.9410303E2,1.2977448E2,2.8468903E2,2.0429294E2,6.0008064E1,6.631128E1,1.1774685E1,1.7405426E1,0E0,0E0,0E0,0E0,0E0,0E0,0E0,0E0,0E0,0E0,0E0,0E0,0E0,0E0,0E0,0E0],"parents":[2147483647,0,0,1,1,2,2,3,3,4,4,5,5,6,6,7,7,8,8,9,9,10,10,11,11,12,12,13,13,14,14],"right_children":[2,4,6,8,10,12,14,16,18,20,22,24,26,28,30,-1,-1,-1,-1,-1,-1,-1,-1,-1,-1,-1,-1,-1,-1,-1,-1],"split_conditions":[2.565679E-1,-3.5E0,5.444889E-1,2.4268836E-1,2.2008136E-2,1.0639913E-2,2.789751E-4,1.2121657E-2,-8.959645E-3,1.8854252E-1,4.4687364E-1,1.5795434E-1,3.55303E-2,-9.1073036E-2,-1.790678E-1,-6.3454255E-2,-2.877834E-2,-3.2364782E-2,4.303719E-2,-1.4275002E-2,7.713678E-2,1.8963484E-2,1.1452913E-1,-2.5104824E-3,9.640755E-2,5.164421E-2,1.13836005E-1,1.2943583E-2,1.17795214E-1,6.9512375E-2,1.9192378E-1],"split_indices":[0,11,0,5,10,7,9,12,4,12,10,2,8,6,5,0,0,0,0,0,0,0,0,0,0,0,0,0,0,0,0],"split_type":[0,0,0,0,0,0,0,0,0,0,0,0,0,0,0,0,0,0,0,0,0,0,0,0,0,0,0,0,0,0,0],"sum_hessian":[8.8004805E4,8.434884E4,3.6559644E3,5.3099727E4,3.1249115E4,3.269111E3,3.8685312E2,4.9834438E4,3.2652886E3,2.2613678E4,8.6354375E3,1.0847754E3,2.1843357E3,1.17414696E2,2.6943842E2,1.2264838E4,3.75696E4,6.374933E2,2.6277952E3,2.1820188E4,7.9349005E2,8.099712E3,5.35726E2,9.2355896E2,1.6121642E2,1.6830847E3,5.012511E2,3.412113E1,8.3293564E1,3.1022861E1,2.3841556E2],"tree_param":{"num_deleted":"0","num_feature":"14","num_nodes":"31","size_leaf_vector":"0"}},{"base_weights":[-1.03953436E-1,-1.6261433E-1,7.501475E-2,-4.0576267E-1,-1.1969917E-1,1.0136294E-3,3.2829937E-1,-4.5577762E-1,-9.9256895E-2,-3.1012884E-1,-6.5368764E-2,-3.4489922E-2,4.4131434E-1,-2.5837496E-2,4.327975E-1,-4.7721946E-1,1.4892249E-1,-2.0852584E-1,1.804004E-1,-3.487031E-1,1.2323615E-2,-1.1170517E-1,1.838E-1,-4.3807846E-2,1.473888E0,3.4330893E-1,1.0518385E0,-1.479982E-1,4.2938197E-1,3.7845984E-1,1.0081686E0],"categories":[],"categories_nodes":[],"categories_segments":[],"categories_sizes":[],"default_left":[true,false,true,true,true,false,false,true,true,true,true,true,false,true,false,false,false,false,false,false,false,false,false,false,false,false,false,false,false,false,false],"id":20,"left_children":[1,3,5,7,9,11,13,15,17,19,21,23,25,27,29,-1,-1,-1,-1,-1,-1,-1,-1,-1,-1,-1,-1,-1,-1,-1,-1],"loss_changes":[9.112234E2,6.8206226E2,4.0160974E2,1.502832E2,5.748505E2,2.592461E2,1.7929791E2,1.093772E2,4.2114555E1,1.5341272E2,4.991526E2,2.1576051E2,7.368248E1,6.1501007E1,1.1657587E2,0E0,0E0,0E0,0E0,0E0,0E0,0E0,0E0,0E0,0E0,0E0,0E0,0E0,0E0,0E0,0E0],"parents":[2147483647,0,0,1,1,2,2,3,3,4,4,5,5,6,6,7,7,8,8,9,9,10,10,11,11,12,12,13,13,14,14],"right_children":[2,4,6,8,10,12,14,16,18,20,22,24,26,28,30,-1,-1,-1,-1,-1,-1,-1,-1,-1,-1,-1,-1,-1,-1,-1,-1],"split_conditions":[7.141888E-2,-7.425408E-2,2.5058955E-2,1.8749753E-1,-1.25E1,4.4387704E-1,-2.5947176E-2,2.9455316E-1,-1.5E0,9.0750953E-4,-8.2344934E-2,4.8916274E-1,6.391667E-1,8.251211E-2,4.8621142E-1,-7.158292E-2,2.2338374E-2,-3.127888E-2,2.7060062E-2,-5.2305464E-2,1.8485424E-3,-1.6755776E-2,2.757E-2,-6.571177E-3,2.2108321E-1,5.149634E-2,1.5777579E-1,-2.2199731E-2,6.44073E-2,5.676898E-2,1.512253E-1],"split_indices":[3,6,7,5,11,3,4,4,11,2,0,4,3,2,7,0,0,0,0,0,0,0,0,0,0,0,0,0,0,0,0],"split_type":[0,0,0,0,0,0,0,0,0,0,0,0,0,0,0,0,0,0,0,0,0,0,0,0,0,0,0,0,0,0,0],"sum_hessian":[8.679395E4,6.536815E4,2.1425809E4,9.805243E3,5.5562906E4,1.6582092E4,4.843717E3,8.429283E3,1.3759598E3,1.2332482E4,4.323042E4,1.5345622E4,1.2364692E3,1.103793E3,3.739924E3,8.1408315E3,2.8845193E2,9.895664E2,3.863934E2,1.1014733E4,1.3177489E3,3.6452184E4,6.7782397E3,1.5252372E4,9.324972E1,1.0667842E3,1.6968501E2,8.7078723E2,2.3300577E2,3.41872E3,3.2120398E2],"tree_param":{"num_deleted":"0","num_feature":"14","num_nodes":"31","size_leaf_vector":"0"}},{"base_weights":[-8.9760706E-2,-1.3169086E-1,1.5269724E-1,-3.082475E-1,-7.629348E-2,1.0957029E-1,8.08667E-1,-4.4165266E-1,-2.38194E-1,-1.3929313E-1,9.0560816E-2,-9.1084205E-2,1.9351302E-1,6.4770526E-1,1.2027506E0,-5.8931553E-1,-3.761956E-1,-5.858316E-1,-2.1016258E-1,-3.8731548E-1,-9.591568E-2,-2.0194948E-1,1.6462061E-1,-2.4016406E-1,1.1720671E-1,1.4049709E-1,5.339802E-1,-5.007954E-1,6.908185E-1,5.134543E-1,1.3282278E0],"categories":[],"categories_nodes":[],"categories_segments":[],"categories_sizes":[],"default_left":[true,false,false,true,true,false,false,true,false,false,false,true,true,false,false,false,false,false,false,false,false,false,false,false,false,false,false,false,false,false,false],"id":21,"left_children":[1,3,5,7,9,11,13,15,17,19,21,23,25,27,29,-1,-1,-1,-1,-1,-1,-1,-1,-1,-1,-1,-1,-1,-1,-1,-1],"loss_changes":[8.723714E2,7.1551013E2,3.5783646E2,1.6317676E2,5.853751E2,1.9999477E2,4.871982E1,5.7912598E1,1.11534E2,4.348673E2,3.306892E2,1.0878945E2,1.5102509E2,2.788704E1,1.8789703E1,0E0,0E0,0E0,0E0,0E0,0E0,0E0,0E0,0E0,0E0,0E0,0E0,0E0,0E0,0E0,0E0],"parents":[2147483647,0,0,1,1,2,2,3,3,4,4,5,5,6,6,7,7,8,8,9,9,10,10,11,11,12,12,13,13,14,14],"right_children":[2,4,6,8,10,12,14,16,18,20,22,24,26,28,30,-1,-1,-1,-1,-1,-1,-1,-1,-1,-1,-1,-1,-1,-1,-1,-1],"split_conditions":[1.4808793E-1,7.968254E-3,5.085199E-1,-9.5E0,-6.619577E-2,8.922871E-3,6.193736E-1,-1.65E1,-1.0052967E-1,6.523292E-2,-1.07769504E-1,-1.8892276E-1,6.575075E-2,-3.011275E-1,1.3725653E-2,-8.839733E-2,-5.6429345E-2,-8.787474E-2,-3.152439E-2,-5.8097325E-2,-1.4387353E-2,-3.0292423E-2,2.4693092E-2,-3.602461E-2,1.7581007E-2,2.1074563E-2,8.0097035E-2,-7.511932E-2,1.0362278E-1,7.701815E-2,1.9923417E-1],"split_indices":[10,12,10,11,5,9,10,11,4,4,6,8,0,3,4,0,0,0,0,0,0,0,0,0,0,0,0,0,0,0,0],"split_type":[0,0,0,0,0,0,0,0,0,0,0,0,0,0,0,0,0,0,0,0,0,0,0,0,0,0,0,0,0,0,0],"sum_hessian":[8.580716E4,7.315615E4,1.2651009E4,1.7470729E4,5.5685418E4,1.1871669E4,7.793399E2,6.013576E3,1.1457152E4,4.042297E4,1.5262451E4,3.5015564E3,8.370113E3,5.5521027E2,2.2412968E2,1.8445344E3,4.1690415E3,8.5341736E2,1.0603735E4,6.016138E3,3.440683E4,3.0831924E3,1.2179259E4,2.0407671E3,1.4607893E3,7.2435884E3,1.1265244E3,1.9703716E1,5.3550653E2,3.5300728E1,1.8882896E2],"tree_param":{"num_deleted":"0","num_feature":"14","num_nodes":"31","size_leaf_vector":"0"}},{"base_weights":[-7.7386096E-2,-1.21661775E-1,1.427435E-1,-3.8493037E-1,-8.5224815E-2,-5.5817027E-2,2.6167068E-1,-4.29772E-1,-1.3351186E-1,-2.5772738E-1,-3.2104008E-2,-1.0754997E-1,5.400903E-1,2.2623344E-1,1.0245702E0,-4.3482095E-1,1.2963172E0,-1.8742968E-1,4.2748323E-1,-3.4812647E-1,-5.829695E-2,-6.773624E-2,2.7198568E-1,-1.468157E-1,4.7276032E-1,2.493032E-1,7.898885E-1,-9.524535E-2,2.864389E-1,8.206361E-1,1.9304556E0],"categories":[],"categories_nodes":[],"categories_segments":[],"categories_sizes":[],"default_left":[true,false,false,true,false,true,true,true,false,true,true,true,true,true,false,false,false,false,false,false,false,false,false,false,false,false,false,false,false,false,false],"id":22,"left_children":[1,3,5,7,9,11,13,15,17,19,21,23,25,27,29,-1,-1,-1,-1,-1,-1,-1,-1,-1,-1,-1,-1,-1,-1,-1,-1],"loss_changes":[8.284862E2,6.788352E2,3.3615118E2,9.693909E1,5.6965436E2,1.6446082E2,2.4045007E2,6.419031E1,3.951317E1,2.638493E2,5.150384E2,1.1189874E2,3.0758026E1,1.6471127E2,7.136853E1,0E0,0E0,0E0,0E0,0E0,0E0,0E0,0E0,0E0,0E0,0E0,0E0,0E0,0E0,0E0,0E0],"parents":[2147483647,0,0,1,1,2,2,3,3,4,4,5,5,6,6,7,7,8,8,9,9,10,10,11,11,12,12,13,13,14,14],"right_children":[2,4,6,8,10,12,14,16,18,20,22,24,26,28,30,-1,-1,-1,-1,-1,-1,-1,-1,-1,-1,-1,-1,-1,-1,-1,-1],"split_conditions":[-2.135732E-2,-3.116038E-3,1.2852691E-1,1.7859292E-1,-3.5903122E-2,2.8928098E-1,3.7597388E-1,5.0301206E-1,5.0467885E-1,-1.0860342E-1,9.385487E-2,2.8669816E-1,-3.0026993E-2,-1.35E1,5.765878E-1,-6.522314E-2,1.9444759E-1,-2.8114453E-2,6.412249E-2,-5.2218974E-2,-8.7445425E-3,-1.0160436E-2,4.0797852E-2,-2.2022355E-2,7.091405E-2,3.739548E-2,1.1848328E-1,-1.4286802E-2,4.2965837E-2,1.23095416E-1,2.8956833E-1],"split_indices":[8,4,4,6,3,2,4,12,6,5,12,1,9,11,4,0,0,0,0,0,0,0,0,0,0,0,0,0,0,0,0],"split_type":[0,0,0,0,0,0,0,0,0,0,0,0,0,0,0,0,0,0,0,0,0,0,0,0,0,0,0,0,0,0,0],"sum_hessian":[8.500168E4,7.0768195E4,1.4233485E4,8.60254E3,6.2165652E4,5.3318955E3,8.90159E3,7.2998667E3,1.3026737E3,1.4635386E4,4.7530266E4,4.9067427E3,4.251531E2,8.507697E3,3.9389203E2,7.2793223E3,2.0544516E1,1.189058E3,1.13615715E2,1.0070032E4,4.565353E3,4.254568E4,4.984586E3,4.5964766E3,3.1026593E2,1.9738156E2,2.2777155E2,1.3418809E3,7.165817E3,3.2306836E2,7.082368E1],"tree_param":{"num_deleted":"0","num_feature":"14","num_nodes":"31","size_leaf_vector":"0"}},{"base_weights":[-6.6638604E-2,-9.894622E-2,2.1279542E-1,-1.3921186E-1,1.1126472E-1,1.2281117E-1,4.625443E-1,-3.9363018E-1,-1.0636225E-1,6.1457615E-2,4.3444163E-1,7.8796156E-2,5.6950605E-1,-9.068501E-2,5.323952E-1,-4.4628793E-1,-1.1912336E-1,-1.146441E-1,8.5474163E-1,-1.18488505E-1,1.3218755E-1,3.4737498E-1,6.344027E-1,5.0917804E-2,7.5907236E-1,2.6128975E-1,8.907076E-1,-5.220574E-1,5.5304017E-2,4.3755928E-1,9.3253285E-1],"categories":[],"categories_nodes":[],"categories_segments":[],"categories_sizes":[],"default_left":[true,true,true,false,true,true,false,true,true,false,true,true,false,true,true,false,false,false,false,false,false,false,false,false,false,false,false,false,false,false,false],"id":23,"left_children":[1,3,5,7,9,11,13,15,17,19,21,23,25,27,29,-1,-1,-1,-1,-1,-1,-1,-1,-1,-1,-1,-1,-1,-1,-1,-1],"loss_changes":[7.6103687E2,6.3958514E2,1.9628171E2,5.2994836E2,1.955049E2,1.2625556E2,8.945563E1,1.0476221E2,4.4715076E2,1.3399232E2,2.8018005E1,1.1088338E2,5.6794388E1,1.6416834E1,7.75517E1,0E0,0E0,0E0,0E0,0E0,0E0,0E0,0E0,0E0,0E0,0E0,0E0,0E0,0E0,0E0,0E0],"parents":[2147483647,0,0,1,1,2,2,3,3,4,4,5,5,6,6,7,7,8,8,9,9,10,10,11,11,12,12,13,13,14,14],"right_children":[2,4,6,8,10,12,14,16,18,20,22,24,26,28,30,-1,-1,-1,-1,-1,-1,-1,-1,-1,-1,-1,-1,-1,-1,-1,-1],"split_conditions":[5.550629E-2,2.5E0,1.0392861E-1,-1.2579605E-1,1.25E1,1.0230246E-1,-2.0347637E-1,1.8448892E-1,4.2536137E-1,1.8193725E-1,1.75E1,4.051847E-1,1.7366105E-1,-1.7619342E-1,2.0058654E-1,-6.694319E-2,-1.7868506E-2,-1.7196616E-2,1.2821124E-1,-1.7773276E-2,1.9828133E-2,5.210625E-2,9.516041E-2,7.6376707E-3,1.1386086E-1,3.9193463E-2,1.3360615E-1,-7.830861E-2,8.295603E-3,6.563389E-2,1.3987993E-1],"split_indices":[2,11,9,6,11,12,6,7,4,9,11,7,10,5,3,0,0,0,0,0,0,0,0,0,0,0,0,0,0,0,0],"split_type":[0,0,0,0,0,0,0,0,0,0,0,0,0,0,0,0,0,0,0,0,0,0,0,0,0,0,0,0,0,0,0],"sum_hessian":[8.42955E4,7.556004E4,8.735458E3,6.3413586E4,1.2146455E4,6.422816E3,2.3126418E3,7.2502026E3,5.6163383E4,1.0525486E4,1.620968E3,5.847782E3,5.7503394E2,2.5922702E2,2.0534148E3,6.082744E3,1.1674584E3,5.568443E4,4.789532E2,2.969646E3,7.5558403E3,1.1311724E3,4.8979565E2,5.6186016E3,2.2918066E2,2.9437408E2,2.8065988E2,6.489562E1,1.9433139E2,1.6616772E3,3.9173755E2],"tree_param":{"num_deleted":"0","num_feature":"14","num_nodes":"31","size_leaf_vector":"0"}},{"base_weights":[-5.73533E-2,-7.875952E-2,3.369463E-1,-3.4589067E-1,-4.897314E-2,2.7899748E-1,1.0388756E0,-4.9205533E-1,-2.6609537E-1,-3.0574808E-1,-1.8268224E-2,2.1197952E-2,3.5785362E-1,6.655529E-1,1.2257334E0,-5.228096E-1,6.9772266E-2,-3.256218E-1,2.302046E-2,-3.2961214E-1,2.4075618E-1,-5.608457E-2,1.9833413E-1,-2.1206457E-2,8.775644E-1,2.947438E-1,6.924314E-1,-1.3757397E-2,9.108681E-1,-3.331345E-1,1.2589306E0],"categories":[],"categories_nodes":[],"categories_segments":[],"categories_sizes":[],"default_left":[true,true,false,false,false,false,false,true,true,true,true,true,true,false,false,false,false,false,false,false,false,false,false,false,false,false,false,false,false,false,false],"id":24,"left_children":[1,3,5,7,9,11,13,15,17,19,21,23,25,27,29,-1,-1,-1,-1,-1,-1,-1,-1,-1,-1,-1,-1,-1,-1,-1,-1],"loss_changes":[7.0575635E2,6.310261E2,1.748493E2,9.266083E1,5.625599E2,8.087619E1,2.2064178E1,4.8561035E1,8.8614105E1,9.94704E1,5.220557E2,3.3899822E1,6.412756E1,1.8609222E1,1.1669586E1,0E0,0E0,0E0,0E0,0E0,0E0,0E0,0E0,0E0,0E0,0E0,0E0,0E0,0E0,0E0,0E0],"parents":[2147483647,0,0,1,1,2,2,3,3,4,4,5,5,6,6,7,7,8,8,9,9,10,10,11,11,12,12,13,13,14,14],"right_children":[2,4,6,8,10,12,14,16,18,20,22,24,26,28,30,-1,-1,-1,-1,-1,-1,-1,-1,-1,-1,-1,-1,-1,-1,-1,-1],"split_conditions":[3.0974802E-1,-1.65E1,5.991969E-1,9.783091E-2,-4.9126044E-2,1.3072453E-2,-3.2271275E-3,2.1927914E-1,-4.879131E-2,3.120772E-1,-9.453455E-3,2.794834E-1,1.9806391E-1,5.311441E-2,-3.60111E-1,-7.842144E-2,1.046584E-2,-4.8843276E-2,3.4530691E-3,-4.9441822E-2,3.611343E-2,-8.412686E-3,2.975012E-2,-3.1809688E-3,1.3163467E-1,4.4211574E-2,1.03864715E-1,-2.0636097E-3,1.3663022E-1,-4.9970176E-2,1.888396E-1],"split_indices":[6,11,6,10,4,12,10,4,9,1,8,4,3,4,5,0,0,0,0,0,0,0,0,0,0,0,0,0,0,0,0],"split_type":[0,0,0,0,0,0,0,0,0,0,0,0,0,0,0,0,0,0,0,0,0,0,0,0,0,0,0,0,0,0,0],"sum_hessian":[8.361166E4,7.930694E4,4.304713E3,7.9549053E3,7.135203E4,3.9777231E3,3.2698953E2,2.8073638E3,5.1475415E3,7.619954E3,6.3732082E4,9.320144E2,3.0457087E3,1.105946E2,2.1639493E2,2.661731E3,1.4563292E2,4.268556E3,8.789852E2,7.3015176E3,3.1843668E2,5.4259688E4,9.472394E3,8.889708E2,4.3043633E1,2.563962E3,4.817469E2,2.9592619E1,8.1001976E1,4.323794E0,2.1207114E2],"tree_param":{"num_deleted":"0","num_feature":"14","num_nodes":"31","size_leaf_vector":"0"}},{"base_weights":[-4.9367093E-2,-6.921467E-2,3.6634025E-1,-2.3504624E-1,-2.1034427E-2,3.114199E-1,1.103752E0,-2.5557587E-1,3.0652955E-1,-6.4805456E-2,1.7079799E-1,1.4512126E-1,4.5318678E-1,9.1364783E-1,1.4738053E0,-2.947818E-1,-4.2960368E-2,5.5731423E-2,4.2460445E-1,-1.1091255E-1,1.1611415E-1,1.474687E-1,1.2450897E0,-1.3068023E-1,2.411204E-1,2.599104E-1,6.386373E-1,6.539592E-1,1.2254682E0,-2.8179345E-1,1.5112658E0],"categories":[],"categories_nodes":[],"categories_segments":[],"categories_sizes":[],"default_left":[true,false,false,true,true,false,false,true,false,true,false,false,true,true,false,false,false,false,false,false,false,false,false,false,false,false,false,false,false,false,false],"id":25,"left_children":[1,3,5,7,9,11,13,15,17,19,21,23,25,27,29,-1,-1,-1,-1,-1,-1,-1,-1,-1,-1,-1,-1,-1,-1,-1,-1],"loss_changes":[6.849372E2,6.3302606E2,1.5285867E2,1.9839453E2,5.1551825E2,8.2969086E1,1.7071869E1,1.4324548E2,1.9281166E1,4.170033E2,2.8568417E2,4.2983818E1,6.796454E1,1.341745E1,6.162155E0,0E0,0E0,0E0,0E0,0E0,0E0,0E0,0E0,0E0,0E0,0E0,0E0,0E0,0E0,0E0,0E0],"parents":[2147483647,0,0,1,1,2,2,3,3,4,4,5,5,6,6,7,7,8,8,9,9,10,10,11,11,12,12,13,13,14,14],"right_children":[2,4,6,8,10,12,14,16,18,20,22,24,26,28,30,-1,-1,-1,-1,-1,-1,-1,-1,-1,-1,-1,-1,-1,-1,-1,-1],"split_conditions":[3.1923994E-1,-5.5589333E-2,6.6324186E-1,3.421238E-1,4.8465393E-2,5.2858397E-2,7.496911E-1,1.3367936E-1,-2.5846682E-2,7.926685E-2,5.2086955E-1,2.4291895E-2,-8.0233864E-2,-1.1260447E-2,-2.695039E-1,-4.4217274E-2,-6.4440556E-3,8.3597135E-3,6.369067E-2,-1.6636882E-2,1.7417124E-2,2.2120306E-2,1.8676345E-1,-1.9602036E-2,3.616806E-2,3.8986564E-2,9.57956E-2,9.809389E-2,1.8382023E-1,-4.2269018E-2,2.2668988E-1],"split_indices":[7,3,7,5,12,6,7,6,7,10,12,12,10,5,4,0,0,0,0,0,0,0,0,0,0,0,0,0,0,0,0],"split_type":[0,0,0,0,0,0,0,0,0,0,0,0,0,0,0,0,0,0,0,0,0,0,0,0,0,0,0,0,0,0,0],"sum_hessian":[8.301072E4,7.922884E4,3.7818774E3,1.783583E4,6.1393016E4,3.521061E3,2.6081638E2,1.7184924E4,6.5090466E2,4.9987797E4,1.1405216E4,1.621268E3,1.8997932E3,1.7459314E2,8.6223236E1,1.4509088E4,2.6758372E3,2.0882336E2,4.4208127E2,3.983603E4,1.0151767E4,1.1163918E4,2.4129803E2,4.1851904E2,1.2027489E3,9.314443E2,9.683489E2,9.6949425E1,7.7643715E1,1.6651081E0,8.455813E1],"tree_param":{"num_deleted":"0","num_feature":"14","num_nodes":"31","size_leaf_vector":"0"}},{"base_weights":[-4.2409927E-2,-1.9925009E-1,5.432331E-3,-5.244301E-1,-1.7424811E-1,-2.3226831E-2,2.993135E-1,-6.6203666E-1,-3.7975076E-1,-1.9101502E-1,3.1166208E-1,-4.258591E-2,3.6965922E-1,6.462892E-2,4.1348046E-1,-6.6759413E-1,7.631596E-1,-4.165253E-1,2.0579073E-1,-4.28489E-1,-1.5990175E-1,-1.253929E-1,4.49507E-1,-2.780388E-1,-9.158033E-3,2.8123477E-1,7.7522725E-1,-5.213948E-2,3.2838872E-1,3.4437346E-1,7.172341E-1],"categories":[],"categories_nodes":[],"categories_segments":[],"categories_sizes":[],"default_left":[false,false,true,true,true,true,false,true,true,true,false,false,false,true,false,false,false,false,false,false,false,false,false,false,false,false,false,false,false,false,false],"id":26,"left_children":[1,3,5,7,9,11,13,15,17,19,21,23,25,27,29,-1,-1,-1,-1,-1,-1,-1,-1,-1,-1,-1,-1,-1,-1,-1,-1],"loss_changes":[6.191183E2,1.5670416E2,5.3251056E2,2.7152008E1,1.4597821E2,4.381764E2,1.5049442E2,6.086487E0,1.4584427E1,1.2785382E2,3.607016E1,4.3212607E2,9.680255E1,5.667837E1,7.908313E1,0E0,0E0,0E0,0E0,0E0,0E0,0E0,0E0,0E0,0E0,0E0,0E0,0E0,0E0,0E0,0E0],"parents":[2147483647,0,0,1,1,2,2,3,3,4,4,5,5,6,6,7,7,8,8,9,9,10,10,11,11,12,12,13,13,14,14],"right_children":[2,4,6,8,10,12,14,16,18,20,22,24,26,28,30,-1,-1,-1,-1,-1,-1,-1,-1,-1,-1,-1,-1,-1,-1,-1,-1],"split_conditions":[7.968254E-3,-2.0644206E-1,2.050216E-1,-9.512803E-2,3.668542E-1,2.3472169E-1,1.2274729E-2,6.1980224E-1,3.8486695E-1,-1.55E1,6.767396E-3,-9.581558E-2,4.7246772E-1,8.2247294E-2,4.2107865E-1,-1.00139126E-1,1.1447394E-1,-6.24788E-2,3.086861E-2,-6.427335E-2,-2.3985265E-2,-1.8808935E-2,6.7426056E-2,-4.170582E-2,-1.373705E-3,4.2185217E-2,1.16284095E-1,-7.820922E-3,4.925831E-2,5.1656023E-2,1.0758512E-1],"split_indices":[12,6,5,5,9,0,9,3,7,11,6,6,0,7,5,0,0,0,0,0,0,0,0,0,0,0,0,0,0,0,0],"split_type":[0,0,0,0,0,0,0,0,0,0,0,0,0,0,0,0,0,0,0,0,0,0,0,0,0,0,0,0,0,0,0],"sum_hessian":[8.250849E4,1.928471E4,6.322378E4,1.3754459E3,1.7909266E4,5.7606902E4,5.6168794E3,7.031212E2,6.7232465E2,1.7312484E4,5.9678094E2,5.4902527E4,2.704377E3,1.8387219E3,3.7781575E3,7.009196E2,2.201626E0,6.328666E2,3.94581E1,2.0040068E3,1.5308478E4,1.4311304E2,4.5366794E2,6.8246987E3,4.807783E4,2.2216848E3,4.8269208E2,1.2750502E3,5.6367175E2,3.0796418E3,6.985156E2],"tree_param":{"num_deleted":"0","num_feature":"14","num_nodes":"31","size_leaf_vector":"0"}},{"base_weights":[-3.645519E-2,-5.8794692E-2,2.865462E-1,-7.082245E-2,4.9045888E-1,2.3875803E-1,8.07924E-1,-8.540539E-2,3.657288E-1,3.721634E-1,1.2758846E0,1.9108154E-1,6.1622125E-1,6.667132E-1,1.2976242E0,-1.9871517E-1,-2.8996443E-2,2.740827E-1,1.050597E0,3.3249217E-1,1.0212582E0,1.0083125E0,1.7443079E0,-9.552908E-2,2.4153711E-1,4.033531E-1,8.8012743E-1,6.14969E-1,1.3977137E0,1.8674616E0,1.0999699E0],"categories":[],"categories_nodes":[],"categories_segments":[],"categories_sizes":[],"default_left":[true,true,false,true,false,true,false,true,false,true,false,false,true,true,true,false,false,false,false,false,false,false,false,false,false,false,false,false,false,false,false],"id":27,"left_children":[1,3,5,7,9,11,13,15,17,19,21,23,25,27,29,-1,-1,-1,-1,-1,-1,-1,-1,-1,-1,-1,-1,-1,-1,-1,-1],"loss_changes":[5.9231476E2,5.072366E2,1.3211163E2,4.783321E2,1.5239932E2,8.744534E1,2.9936401E1,4.646919E2,1.5215768E2,3.6519424E1,2.518399E1,6.251619E1,3.0272873E1,1.2295471E1,9.0555725E0,0E0,0E0,0E0,0E0,0E0,0E0,0E0,0E0,0E0,0E0,0E0,0E0,0E0,0E0,0E0,0E0],"parents":[2147483647,0,0,1,1,2,2,3,3,4,4,5,5,6,6,7,7,8,8,9,9,10,10,11,11,12,12,13,13,14,14],"right_children":[2,4,6,8,10,12,14,16,18,20,22,24,26,28,30,-1,-1,-1,-1,-1,-1,-1,-1,-1,-1,-1,-1,-1,-1,-1,-1],"split_conditions":[2.9768223E-1,3.3237368E-1,5.7903093E-1,1.9773832E-1,5.7542205E-1,1.0665952E-1,7.042808E-1,-9.5E0,5.2086955E-1,3.00731E-1,6.6246766E-1,-1.3302827E-1,-1.3025946E-2,1.504717E-1,-1.05E1,-2.9807275E-2,-4.349467E-3,4.1112404E-2,1.5758955E-1,4.987383E-2,1.5318874E-1,1.5124688E-1,2.6164618E-1,-1.4329363E-2,3.6230568E-2,6.0502965E-2,1.3201912E-1,9.2245355E-2,2.0965706E-1,2.8011924E-1,1.6499549E-1],"split_indices":[3,4,3,12,4,2,3,11,12,1,4,10,9,12,11,0,0,0,0,0,0,0,0,0,0,0,0,0,0,0,0],"split_type":[0,0,0,0,0,0,0,0,0,0,0,0,0,0,0,0,0,0,0,0,0,0,0,0,0,0,0,0,0,0,0],"sum_hessian":[8.208373E4,7.677464E4,5.3090884E3,7.513028E4,1.6443593E3,4.8646636E3,4.4442484E2,7.270247E4,2.4278127E3,1.4303965E3,2.1396275E2,4.3204624E3,5.442012E2,3.4678638E2,9.763845E1,2.4163082E4,4.8539387E4,2.1425112E3,2.8530142E2,1.3494343E3,8.096211E1,1.3818274E2,7.5780014E1,6.465981E2,3.6738643E3,3.0262814E2,2.4157303E2,3.2558127E2,2.120513E1,2.2969439E1,7.4669014E1],"tree_param":{"num_deleted":"0","num_feature":"14","num_nodes":"31","size_leaf_vector":"0"}},{"base_weights":[-3.1337734E-2,-4.815089E-2,3.714762E-1,-3.1453574E-1,-2.4517644E-2,2.9605252E-1,8.8533264E-1,-3.5089067E-1,3.1143995E-2,-4.7553096E-2,2.7077726E-1,4.0829603E-2,3.954231E-1,8.055087E-1,1.3675716E0,-3.700275E-1,1.4214468E-1,-3.9858708E-1,2.3190872E-1,-7.3209174E-2,1.9063322E-1,1.8683322E-1,4.737071E-1,-1.290611E-1,3.166406E-1,3.6217695E-1,1.0582098E0,3.067105E-1,8.7158287E-1,1.5070778E0,-1.9554155E-1],"categories":[],"categories_nodes":[],"categories_segments":[],"categories_sizes":[],"default_left":[true,false,false,true,true,false,false,true,true,true,false,true,true,false,true,false,false,false,false,false,false,false,false,false,false,false,false,false,false,false,false],"id":28,"left_children":[1,3,5,7,9,11,13,15,17,19,21,23,25,27,29,-1,-1,-1,-1,-1,-1,-1,-1,-1,-1,-1,-1,-1,-1,-1,-1],"loss_changes":[5.5244995E2,4.9294348E2,1.2640842E2,8.0197266E1,4.8924463E2,7.23029E1,1.4982117E1,5.452655E1,5.2556812E1,4.0772495E2,8.857175E1,3.753721E1,4.4839233E1,1.1627609E1,1.2921837E1,0E0,0E0,0E0,0E0,0E0,0E0,0E0,0E0,0E0,0E0,0E0,0E0,0E0,0E0,0E0,0E0],"parents":[2147483647,0,0,1,1,2,2,3,3,4,4,5,5,6,6,7,7,8,8,9,9,10,10,11,11,12,12,13,13,14,14],"right_children":[2,4,6,8,10,12,14,16,18,20,22,24,26,28,30,-1,-1,-1,-1,-1,-1,-1,-1,-1,-1,-1,-1,-1,-1,-1,-1],"split_conditions":[3.4439284E-1,-9.372659E-2,5.6976944E-1,1.8154159E-1,1.2571198E-1,3.302015E-3,7.113617E-1,3.1721443E-1,-1.4719796E-1,5.5E0,3.2885706E-1,-1.0951945E-2,1.5759906E-1,-1.4103004E-1,1.7788145E-1,-5.550413E-2,2.1321703E-2,-5.9788063E-2,3.478631E-2,-1.0981376E-2,2.8594984E-2,2.8024985E-2,7.105607E-2,-1.9359166E-2,4.749609E-2,5.4326545E-2,1.5873148E-1,4.600658E-2,1.3073744E-1,2.2606169E-1,-2.9331233E-2],"split_indices":[10,4,10,1,2,9,10,2,7,11,2,7,12,7,4,0,0,0,0,0,0,0,0,0,0,0,0,0,0,0,0],"split_type":[0,0,0,0,0,0,0,0,0,0,0,0,0,0,0,0,0,0,0,0,0,0,0,0,0,0,0,0,0,0,0],"sum_hessian":[8.156799E4,7.830066E4,3.2673315E3,6.379629E3,7.192103E4,2.8505107E3,4.1682086E2,5.7725215E3,6.071074E2,6.671736E4,5.203669E3,7.992169E2,2.0512937E3,3.599152E2,5.6905663E1,5.5570767E3,2.154447E2,1.9300356E2,4.1410388E2,6.023038E4,6.4869814E3,3.6823481E3,1.5213209E3,4.9490402E2,3.0431293E2,1.9547859E3,9.650789E1,4.275992E1,3.1715527E2,5.227594E1,4.629722E0],"tree_param":{"num_deleted":"0","num_feature":"14","num_nodes":"31","size_leaf_vector":"0"}},{"base_weights":[-2.6921183E-2,-5.1474698E-2,2.2461817E-1,-2.350809E-1,-1.589181E-2,1.6578814E-1,6.2049264E-1,-3.5778663E-1,-1.3449603E-1,-1.649839E-1,2.9642913E-2,1.9130118E-2,2.8442597E-1,5.551645E-1,1.2465489E0,-6.059776E-1,-2.969658E-1,-3.3986777E-1,-6.5291904E-2,-1.8544342E-1,2.333113E-1,-1.0012372E-3,2.6627845E-1,-1.2533125E-1,1.6648939E-1,1.3974549E-1,4.7933644E-1,3.3054647E-1,6.861967E-1,1.7671318E0,1.0921631E0],"categories":[],"categories_nodes":[],"categories_segments":[],"categories_sizes":[],"default_left":[true,false,false,true,false,true,false,false,false,true,true,false,false,true,true,false,false,false,false,false,false,false,false,false,false,false,false,false,false,false,false],"id":29,"left_children":[1,3,5,7,9,11,13,15,17,19,21,23,25,27,29,-1,-1,-1,-1,-1,-1,-1,-1,-1,-1,-1,-1,-1,-1,-1,-1],"loss_changes":[5.013778E2,4.8318805E2,1.6803354E2,1.4813818E2,4.2059998E2,1.0937932E2,3.749527E1,8.1452515E1,9.377356E1,1.18160126E2,3.441553E2,5.989169E1,9.7935974E1,2.4710327E1,5.0960693E0,0E0,0E0,0E0,0E0,0E0,0E0,0E0,0E0,0E0,0E0,0E0,0E0,0E0,0E0,0E0,0E0],"parents":[2147483647,0,0,1,1,2,2,3,3,4,4,5,5,6,6,7,7,8,8,9,9,10,10,11,11,12,12,13,13,14,14],"right_children":[2,4,6,8,10,12,14,16,18,20,22,24,26,28,30,-1,-1,-1,-1,-1,-1,-1,-1,-1,-1,-1,-1,-1,-1,-1,-1],"split_conditions":[2.0112486E-1,-4.374834E-2,5.2289456E-1,-1.5820003E-1,-3.4867197E-2,-9.773594E-2,7.496911E-1,1.627906E-1,-1.3570294E-1,2.9096305E-1,-1.0429276E-3,1.0796829E-1,1.6904841E-1,-1.6142422E-1,-4.3108603E-1,-9.089664E-2,-4.4544872E-2,-5.098017E-2,-9.793786E-3,-2.7816514E-2,3.4996696E-2,-1.5018559E-4,3.994177E-2,-1.8799689E-2,2.497341E-2,2.0961825E-2,7.190047E-2,4.958197E-2,1.0292951E-1,2.6506978E-1,1.6382447E-1],"split_indices":[7,6,7,5,3,3,7,1,7,5,0,6,9,5,3,0,0,0,0,0,0,0,0,0,0,0,0,0,0,0,0],"split_type":[0,0,0,0,0,0,0,0,0,0,0,0,0,0,0,0,0,0,0,0,0,0,0,0,0,0,0,0,0,0,0],"sum_hessian":[8.117645E4,7.395799E4,7.218468E3,1.2005339E4,6.195265E4,6.285772E3,9.326959E2,5.4068477E3,6.598491E3,1.4493775E4,4.7458875E4,2.811458E3,3.4743137E3,8.462751E2,8.642084E1,1.0624315E3,4.344416E3,1.6620986E3,4.9363926E3,1.3786146E4,7.076283E2,4.20185E4,5.440373E3,1.4197639E3,1.391694E3,1.9950907E3,1.4792231E3,3.1309082E2,5.3318427E2,1.73777E1,6.904314E1],"tree_param":{"num_deleted":"0","num_feature":"14","num_nodes":"31","size_leaf_vector":"0"}},{"base_weights":[-2.31419E-2,-4.1814983E-2,2.7890623E-1,-1.9127813E-1,-1.6709729E-3,2.4045265E-1,8.0855495E-1,-2.6148477E-1,-3.949404E-2,-4.4590447E-2,1.5188436E-1,1.4306493E-1,4.2688406E-1,2.0014866E-1,9.2165196E-1,-3.7192875E-1,-1.9064985E-1,-1.9230634E-1,9.723429E-2,-3.059483E-1,-1.839132E-2,1.3337025E-1,8.3649564E-1,2.3573251E-2,3.3690774E-1,2.382948E-1,5.5832094E-1,3.9867036E-2,1.4541563E0,8.4852225E-1,1.8015103E0],"categories":[],"categories_nodes":[],"categories_segments":[],"categories_sizes":[],"default_left":[true,false,true,true,true,true,false,false,true,false,true,false,false,true,true,false,false,false,false,false,false,false,false,false,false,false,false,false,false,false,false],"id":30,"left_children":[1,3,5,7,9,11,13,15,17,19,21,23,25,27,29,-1,-1,-1,-1,-1,-1,-1,-1,-1,-1,-1,-1,-1,-1,-1,-1],"loss_changes":[4.5616757E2,4.5701355E2,9.571167E1,1.7183777E2,3.957199E2,7.967352E1,2.1718323E1,8.619E1,1.0660484E2,3.2132245E2,1.6613892E2,6.684412E1,3.720703E1,1.0227634E1,1.5724518E1,0E0,0E0,0E0,0E0,0E0,0E0,0E0,0E0,0E0,0E0,0E0,0E0,0E0,0E0,0E0,0E0],"parents":[2147483647,0,0,1,1,2,2,3,3,4,4,5,5,6,6,7,7,8,8,9,9,10,10,11,11,12,12,13,13,14,14],"right_children":[2,4,6,8,10,12,14,16,18,20,22,24,26,28,30,-1,-1,-1,-1,-1,-1,-1,-1,-1,-1,-1,-1,-1,-1,-1,-1],"split_conditions":[2.881423E-1,1.3485129E-1,2.7015668E-1,-1.7548051E-1,-2.2777457E-2,-1.4871787E-1,-1.1897437E-1,7.4249744E-2,-1.0295829E-1,1.2991707E-1,4.5288643E-1,2.1235952E-1,1.3454813E-1,2.6749864E-1,3.5706618E-1,-5.5789314E-2,-2.859748E-2,-2.8845953E-2,1.4585144E-2,-4.5892246E-2,-2.758698E-3,2.0005539E-2,1.2547435E-1,3.5359878E-3,5.0536163E-2,3.574422E-2,8.374815E-2,5.980056E-3,2.1812345E-1,1.2727834E-1,2.7022657E-1],"split_indices":[9,4,1,2,5,2,0,10,7,1,6,10,4,5,0,0,0,0,0,0,0,0,0,0,0,0,0,0,0,0,0],"split_type":[0,0,0,0,0,0,0,0,0,0,0,0,0,0,0,0,0,0,0,0,0,0,0,0,0,0,0,0,0,0,0],"sum_hessian":[8.0875266E4,7.616734E4,4.7079214E3,1.6125507E4,6.004184E4,4.3906084E3,3.173132E2,1.1025171E4,5.1003364E3,4.692639E4,1.3115448E4,2.8852063E3,1.5054019E3,5.0173607E1,2.671396E2,4.3064355E3,6.7187354E3,2.4083145E3,2.6920217E3,4.2744595E3,4.265193E4,1.2771267E4,3.4418155E2,1.7856124E3,1.099594E3,6.1943396E2,8.8596796E2,4.5402283E1,4.771324E0,2.4845367E2,1.868593E1],"tree_param":{"num_deleted":"0","num_feature":"14","num_nodes":"31","size_leaf_vector":"0"}},{"base_weights":[-1.9892331E-2,-1.5713756E-1,2.1157935E-2,-3.8686213E-1,-1.3032393E-1,-1.0227928E-2,2.1006641E-1,-5.120734E-1,-2.591978E-1,-1.9549647E-1,-1.7307917E-2,-1.9726434E-1,3.0188486E-2,-4.5668915E-2,2.6318836E-1,-7.5009066E-1,-4.6963516E-1,-3.2808238E-1,4.3637857E-2,-2.2702268E-1,3.5360176E-2,-3.348674E-1,2.078056E-2,-3.4554592E-1,-9.595073E-2,-2.1184044E-2,1.6561557E-1,-6.842734E-2,1.3293077E0,1.778876E-1,4.2860314E-1],"categories":[],"categories_nodes":[],"categories_segments":[],"categories_sizes":[],"default_left":[false,false,true,true,true,false,false,false,true,true,false,false,true,true,true,false,false,false,false,false,false,false,false,false,false,false,false,false,false,false,false],"id":31,"left_children":[1,3,5,7,9,11,13,15,17,19,21,23,25,27,29,-1,-1,-1,-1,-1,-1,-1,-1,-1,-1,-1,-1,-1,-1,-1,-1],"loss_changes":[4.543128E2,1.143111E2,3.6803546E2,3.087857E1,1.2246286E2,4.023907E2,1.2015524E2,9.530518E0,2.009539E1,7.67587E1,7.357574E1,1.4206387E2,3.0453864E2,4.7715595E1,1.0324826E2,0E0,0E0,0E0,0E0,0E0,0E0,0E0,0E0,0E0,0E0,0E0,0E0,0E0,0E0,0E0,0E0],"parents":[2147483647,0,0,1,1,2,2,3,3,4,4,5,5,6,6,7,7,8,8,9,9,10,10,11,11,12,12,13,13,14,14],"right_children":[2,4,6,8,10,12,14,16,18,20,22,24,26,28,30,-1,-1,-1,-1,-1,-1,-1,-1,-1,-1,-1,-1,-1,-1,-1,-1],"split_conditions":[7.968254E-3,-1.4338936E-1,-3.0087922E-2,-9.663593E-2,-7.085191E-2,6.2865554E-3,-1.18967265E-1,-1.4841947E-1,1.1454186E-1,4.5E0,-7.796115E-2,2.5745988E-2,-1.4130647E-1,5.124853E-1,3.5961397E-2,-1.125136E-1,-7.044528E-2,-4.921236E-2,6.5456787E-3,-3.4053404E-2,5.3040264E-3,-5.0230112E-2,3.117084E-3,-5.183189E-2,-1.439261E-2,-3.1776067E-3,2.4842337E-2,-1.0264101E-2,1.9939616E-1,2.6683142E-2,6.429047E-2],"split_indices":[12,6,2,5,10,9,7,7,0,11,4,10,5,1,9,0,0,0,0,0,0,0,0,0,0,0,0,0,0,0,0],"split_type":[0,0,0,0,0,0,0,0,0,0,0,0,0,0,0,0,0,0,0,0,0,0,0,0,0,0,0,0,0,0,0],"sum_hessian":[8.063678E4,1.8564941E4,6.2071844E4,1.939022E3,1.662592E4,5.322913E4,8.842713E3,9.773958E2,9.616262E2,1.05445205E4,6.081399E3,9.457669E3,4.377146E4,1.520928E3,7.321785E3,1.4537532E2,8.3202045E2,7.8335645E2,1.7826974E2,9.277574E3,1.2669464E3,6.504591E2,5.43094E3,3.8380007E3,5.6196685E3,3.1734303E4,1.2037157E4,1.4970985E3,2.3829538E1,4.8320693E3,2.4897158E3],"tree_param":{"num_deleted":"0","num_feature":"14","num_nodes":"31","size_leaf_vector":"0"}},{"base_weights":[-1.7144443E-2,-3.1401375E-1,1.8411427E-3,-4.4577616E-1,-2.1617374E-1,-2.713224E-2,1.8074894E-1,-4.8311266E-1,1.4319019E-1,3.472232E0,-2.2108303E-1,-1.9152683E-1,4.378643E-3,-1.6324522E-1,2.1879138E-1,-5.3814113E-1,-2.4475953E-1,1.7766928E-2,1.6925985E0,1.0709454E0,4.4097114E0,-2.4291886E-1,5.211593E-1,-2.1698542E-1,2.0855828E-1,-3.439558E-2,1.5724269E-1,-1.843854E-1,9.099164E-1,8.03865E-2,2.9284528E-1],"categories":[],"categories_nodes":[],"categories_segments":[],"categories_sizes":[],"default_left":[true,false,true,true,true,false,false,true,true,true,true,true,true,true,false,false,false,false,false,false,false,false,false,false,false,false,false,false,false,false,false],"id":32,"left_children":[1,3,5,7,9,11,13,15,17,19,21,23,25,27,29,-1,-1,-1,-1,-1,-1,-1,-1,-1,-1,-1,-1,-1,-1,-1,-1],"loss_changes":[4.5313977E2,6.220352E1,3.917054E2,4.5332336E1,5.1019928E1,3.3689517E2,1.3786282E2,2.5259674E1,2.3965746E1,3.7165604E0,4.5061462E1,1.0659378E2,3.234819E2,2.3973955E1,9.7179504E1,0E0,0E0,0E0,0E0,0E0,0E0,0E0,0E0,0E0,0E0,0E0,0E0,0E0,0E0,0E0,0E0],"parents":[2147483647,0,0,1,1,2,2,3,3,4,4,5,5,6,6,7,7,8,8,9,9,10,10,11,11,12,12,13,13,14,14],"right_children":[2,4,6,8,10,12,14,16,18,20,22,24,26,28,30,-1,-1,-1,-1,-1,-1,-1,-1,-1,-1,-1,-1,-1,-1,-1,-1],"split_conditions":[-1.85E1,1.893024E-1,4.10307E-2,2.1811691E-1,5E-1,-3.423114E-2,-1.9679871E-1,-7.5741746E-3,2.9664552E-1,-1.5739681E-1,3.558542E-1,2.6692396E-1,6.321977E-2,4.668551E-1,1.2620756E-1,-8.072117E-2,-3.671393E-2,2.6650394E-3,2.5388977E-1,1.6064182E-1,6.614567E-1,-3.643783E-2,7.81739E-2,-3.2547813E-2,3.1283744E-2,-5.159337E-3,2.3586404E-2,-2.7657812E-2,1.3648747E-1,1.2057975E-2,4.3926794E-2],"split_indices":[11,10,8,4,13,9,6,1,1,6,6,1,10,1,4,0,0,0,0,0,0,0,0,0,0,0,0,0,0,0,0],"split_type":[0,0,0,0,0,0,0,0,0,0,0,0,0,0,0,0,0,0,0,0,0,0,0,0,0,0,0,0,0,0,0],"sum_hessian":[8.039645E4,4.8315815E3,7.5564875E4,2.057357E3,2.7742246E3,6.503377E4,1.0531104E4,1.9348783E3,1.2247858E2,2.7487924E0,2.7714758E3,1.0459695E4,5.4574074E4,1.0483386E3,9.482765E3,1.5709388E3,3.6393945E2,1.1424223E2,8.236343E0,1.3733698E0,1.3754226E0,2.692926E3,7.8549774E1,9.834363E3,6.2533203E2,4.3532707E4,1.1041369E4,1.0288986E3,1.944007E1,3.3060063E3,6.1767583E3],"tree_param":{"num_deleted":"0","num_feature":"14","num_nodes":"31","size_leaf_vector":"0"}},{"base_weights":[-1.4781586E-2,-2.9364984E-2,3.405833E-1,-5.6772E-2,1.5178818E-1,2.8825712E-1,8.385193E-1,-2.4893983E-1,-2.780002E-2,1.143829E-1,5.046767E-1,8.733737E-2,3.9444685E-1,3.828898E-1,9.2760843E-1,-3.562343E-1,-1.3779207E-1,-7.0758015E-2,9.126043E-2,5.8424287E-2,2.6633465E-1,4.5229694E-1,1.1360606E0,-6.2464923E-2,4.122738E-1,3.6500105E-1,1.29773E0,-1.6249567E-1,6.814158E-1,7.0316255E-1,1.1950375E0],"categories":[],"categories_nodes":[],"categories_segments":[],"categories_sizes":[],"default_left":[true,true,false,false,false,false,false,false,true,true,false,true,true,true,false,false,false,false,false,false,false,false,false,false,false,false,false,false,false,false,false],"id":33,"left_children":[1,3,5,7,9,11,13,15,17,19,21,23,25,27,29,-1,-1,-1,-1,-1,-1,-1,-1,-1,-1,-1,-1,-1,-1,-1,-1],"loss_changes":[4.1536362E2,3.8224417E2,8.207837E1,3.7230035E2,1.3348979E2,6.0997025E1,1.1819061E1,1.044292E2,2.9722528E2,7.777832E1,3.1543869E1,4.8233665E1,4.929538E1,8.374239E0,1.41754E1,0E0,0E0,0E0,0E0,0E0,0E0,0E0,0E0,0E0,0E0,0E0,0E0,0E0,0E0,0E0,0E0],"parents":[2147483647,0,0,1,1,2,2,3,3,4,4,5,5,6,6,7,7,8,8,9,9,10,10,11,11,12,12,13,13,14,14],"right_children":[2,4,6,8,10,12,14,16,18,20,22,24,26,28,30,-1,-1,-1,-1,-1,-1,-1,-1,-1,-1,-1,-1,-1,-1,-1,-1],"split_conditions":[2.7740264E-1,1.9548044E-1,5.7213223E-1,-5.903588E-2,4.949271E-1,1.7065606E-1,-6.5622136E-2,8.8239565E-2,-5E-1,-3.9956346E-2,7.2004676E-1,1.0584932E-1,4.5250538E-1,-8.293933E-2,6.383387E-1,-5.343515E-2,-2.066881E-2,-1.0613702E-2,1.3689065E-2,8.763643E-3,3.99502E-2,6.784455E-2,1.704091E-1,-9.369738E-3,6.184107E-2,5.475016E-2,1.946595E-1,-2.4374353E-2,1.0221238E-1,1.0547439E-1,1.7925563E-1],"split_indices":[0,3,0,7,3,1,1,6,11,7,3,5,1,5,0,0,0,0,0,0,0,0,0,0,0,0,0,0,0,0,0],"split_type":[0,0,0,0,0,0,0,0,0,0,0,0,0,0,0,0,0,0,0,0,0,0,0,0,0,0,0,0,0,0,0],"sum_hessian":[8.014552E4,7.698706E4,3.1584636E3,6.687074E4,1.011632E4,2.859544E3,2.989196E2,8.759879E3,5.8110863E4,9.147981E3,9.6833826E2,9.893791E2,1.8701649E3,4.9755005E1,2.4916458E2,4.456079E3,4.3038003E3,4.2703496E4,1.5407368E4,6.6868345E3,2.461147E3,8.957435E2,7.2594765E1,6.777366E2,3.1164252E2,1.8124845E3,5.7680435E1,1.776157E1,3.1993437E1,1.3744232E2,1.1172225E2],"tree_param":{"num_deleted":"0","num_feature":"14","num_nodes":"31","size_leaf_vector":"0"}},{"base_weights":[-1.2724449E-2,-2.4943778E-2,3.868823E-1,-1.9931939E-1,2.3518538E-3,3.247821E-1,9.274951E-1,-2.4801321E-1,-2.8861575E-2,-1.3384533E-2,2.9475754E-1,2.8385824E-1,6.8022704E-1,6.651105E-1,1.1526697E0,-2.5900057E-1,3.23226E-1,-7.820218E-2,2.900216E-1,-1.9914642E-2,6.8860775E-1,2.4205701E-1,9.17165E-1,8.83925E-2,3.6482525E-1,1.0801057E0,5.063498E-1,2.954755E-1,1.017971E0,4.5849383E-1,1.2217538E0],"categories":[],"categories_nodes":[],"categories_segments":[],"categories_sizes":[],"default_left":[true,false,false,true,true,true,true,true,true,true,false,false,false,false,false,false,false,false,false,false,false,false,false,false,false,false,false,false,false,false,false],"id":34,"left_children":[1,3,5,7,9,11,13,15,17,19,21,23,25,27,29,-1,-1,-1,-1,-1,-1,-1,-1,-1,-1,-1,-1,-1,-1,-1,-1],"loss_changes":[3.8986453E2,3.687453E2,7.923166E1,8.702652E1,3.0824188E2,3.0738815E1,1.362291E1,5.127234E1,3.6697903E1,2.9141354E2,1.1199133E2,3.017421E1,1.466861E1,1.467852E1,5.6600494E0,0E0,0E0,0E0,0E0,0E0,0E0,0E0,0E0,0E0,0E0,0E0,0E0,0E0,0E0,0E0,0E0],"parents":[2147483647,0,0,1,1,2,2,3,3,4,4,5,5,6,6,7,7,8,8,9,9,10,10,11,11,12,12,13,13,14,14],"right_children":[2,4,6,8,10,12,14,16,18,20,22,24,26,28,30,-1,-1,-1,-1,-1,-1,-1,-1,-1,-1,-1,-1,-1,-1,-1,-1],"split_conditions":[3.9245927E-1,-1.4019875E-1,6.2647367E-1,2.0406032E-2,1.5657413E-1,9.566646E-2,-1.11216426E-1,1.35E1,2.3716484E-1,4.443394E-1,5.2086955E-1,1.2247756E-1,-3.0807098E-2,1.629614E-1,-1.2268293E-1,-3.8850088E-2,4.8483904E-2,-1.1730327E-2,4.350324E-2,-2.9871964E-3,1.0329117E-1,3.6308553E-2,1.3757475E-1,1.3258876E-2,5.4723788E-2,1.6201586E-1,7.595247E-2,4.432133E-2,1.5269566E-1,6.8774074E-2,1.8326308E-1],"split_indices":[6,3,6,7,12,12,5,11,10,4,12,1,5,10,4,0,0,0,0,0,0,0,0,0,0,0,0,0,0,0,0],"split_type":[0,0,0,0,0,0,0,0,0,0,0,0,0,0,0,0,0,0,0,0,0,0,0,0,0,0,0,0,0,0,0],"sum_hessian":[7.9839414E4,7.747141E4,2.368013E3,1.0484683E4,6.698673E4,2.125462E3,2.42551E2,8.154712E3,2.3299702E3,6.356671E4,3.4200132E3,1.9076273E3,2.178346E2,1.13845894E2,1.2870511E2,8.0013584E3,1.5335355E2,2.0184165E3,3.115536E2,6.298181E4,5.84901E2,3.1543193E3,2.6569388E2,5.593558E2,1.3482715E3,6.443551E1,1.5339908E2,5.6498695E1,5.7347195E1,1.2340553E1,1.16364555E2],"tree_param":{"num_deleted":"0","num_feature":"14","num_nodes":"31","size_leaf_vector":"0"}},{"base_weights":[-1.0920367E-2,-2.5463546E-2,3.095219E-1,-3.0555344E-1,-9.313406E-3,2.890905E-1,9.5455897E-1,-3.26155E-1,1.418884E-1,-1.5501365E-2,7.4375296E-1,1.759359E-1,4.154008E-1,5.44324E-1,1.1806043E0,-4.7383222E-1,-2.7714854E-1,4.647731E-2,9.1325617E-1,-2.5024775E-1,2.922308E-3,5.694494E-1,1.3467646E0,-1.2617342E-1,2.3543628E-1,3.083007E-1,5.987069E-1,2.6933375E-1,1.3859198E0,1.2234297E0,-6.10401E-1],"categories":[],"categories_nodes":[],"categories_segments":[],"categories_sizes":[],"default_left":[true,false,true,true,true,false,false,false,true,true,false,false,true,true,true,false,false,false,false,false,false,false,false,false,false,false,false,false,false,false,false],"id":35,"left_children":[1,3,5,7,9,11,13,15,17,19,21,23,25,27,29,-1,-1,-1,-1,-1,-1,-1,-1,-1,-1,-1,-1,-1,-1,-1,-1],"loss_changes":[3.711285E2,3.4459204E2,4.5289032E1,3.8328857E1,3.35653E2,4.7845398E1,9.16053E0,2.8603912E1,1.3462445E1,3.0897482E2,6.0935455E1,3.1849586E1,3.0903046E1,8.747869E0,5.9089813E0,0E0,0E0,0E0,0E0,0E0,0E0,0E0,0E0,0E0,0E0,0E0,0E0,0E0,0E0,0E0,0E0],"parents":[2147483647,0,0,1,1,2,2,3,3,4,4,5,5,6,6,7,7,8,8,9,9,10,10,11,11,12,12,13,13,14,14],"right_children":[2,4,6,8,10,12,14,16,18,20,22,24,26,28,30,-1,-1,-1,-1,-1,-1,-1,-1,-1,-1,-1,-1,-1,-1,-1,-1],"split_conditions":[3.1029505E-1,-2.2858196E-1,4.224993E-1,3.3574408E-1,4.534918E-1,1.6775765E-1,1.4396283E-1,-7.184932E-2,2.0627888E-1,-1.75E1,6.107278E-1,-9.9171475E-2,-1.5402727E-2,5.737283E-2,3.9122963E-1,-7.1074836E-2,-4.1572284E-2,6.9715967E-3,1.3698843E-1,-3.7537165E-2,4.383462E-4,8.541742E-2,2.020147E-1,-1.8926013E-2,3.5315443E-2,4.6245106E-2,8.9806035E-2,4.0400065E-2,2.0788798E-1,1.8351446E-1,-9.156015E-2],"split_indices":[5,6,10,0,1,6,4,10,2,11,1,1,3,1,2,0,0,0,0,0,0,0,0,0,0,0,0,0,0,0,0],"split_type":[0,0,0,0,0,0,0,0,0,0,0,0,0,0,0,0,0,0,0,0,0,0,0,0,0,0,0,0,0,0,0],"sum_hessian":[7.963436E4,7.617796E4,3.456394E3,4.152023E3,7.2025945E4,3.3516787E3,1.04715385E2,3.9695251E3,1.8249779E2,7.14399E4,5.860434E2,1.7691682E3,1.5825105E3,3.8412E1,6.630339E1,9.869022E2,2.982623E3,1.633528E2,1.9144983E1,5.1979033E3,6.624199E4,4.561386E2,1.299048E2,2.9092007E2,1.4782482E3,1.00058276E3,5.8192773E2,2.9946915E1,8.465083E0,6.5064514E1,1.2388763E0],"tree_param":{"num_deleted":"0","num_feature":"14","num_nodes":"31","size_leaf_vector":"0"}},{"base_weights":[-9.418415E-3,-1.2786743E-1,2.5403107E-2,-1.3857089E-1,2.812278E-1,1.2461833E-2,3.6572284E-1,-2.6112893E-1,-1.0219669E-1,-8.9399256E-2,4.3956286E-1,-2.2974244E-1,3.0111188E-2,2.9466388E-1,7.675231E-1,-2.792538E-1,1.9514467E-1,-1.5847264E-1,-1.0433341E-2,-5.8102846E-1,9.042726E-2,3.7769854E-1,1.4390589E0,-2.7989984E-1,2.781766E-2,8.608529E-3,2.409073E-1,9.3355864E-2,3.6929277E-1,6.9368535E-1,1.2310339E0],"categories":[],"categories_nodes":[],"categories_segments":[],"categories_sizes":[],"default_left":[false,true,true,false,false,false,false,true,true,true,true,true,true,false,false,false,false,false,false,false,false,false,false,false,false,false,false,false,false,false,false],"id":36,"left_children":[1,3,5,7,9,11,13,15,17,19,21,23,25,27,29,-1,-1,-1,-1,-1,-1,-1,-1,-1,-1,-1,-1,-1,-1,-1,-1],"loss_changes":[3.2769757E2,7.907608E1,2.704115E2,7.839166E1,2.7065891E1,2.5286569E2,6.399408E1,3.334308E1,7.0056244E1,1.2313685E1,1.9420036E1,5.1910934E1,2.4990703E2,2.8703629E1,1.0692993E1,0E0,0E0,0E0,0E0,0E0,0E0,0E0,0E0,0E0,0E0,0E0,0E0,0E0,0E0,0E0,0E0],"parents":[2147483647,0,0,1,1,2,2,3,3,4,4,5,5,6,6,7,7,8,8,9,9,10,10,11,11,12,12,13,13,14,14],"right_children":[2,4,6,8,10,12,14,16,18,20,22,24,26,28,30,-1,-1,-1,-1,-1,-1,-1,-1,-1,-1,-1,-1,-1,-1,-1,-1],"split_conditions":[8.032259E-3,4.2048097E-1,3.5898367E-1,-4.5893766E-2,6.8032416E-3,-1.16622075E-1,5.6976944E-1,1.05E1,-9.121923E-2,-1.8299863E-1,3.0568454E-1,1.9183567E-1,1.137492E-1,3.280228E-3,7.113617E-1,-4.1888073E-2,2.9271701E-2,-2.3770897E-2,-1.5650013E-3,-8.715427E-2,1.3564089E-2,5.6654785E-2,2.1585885E-1,-4.1984975E-2,4.1726492E-3,1.2912794E-3,3.6136094E-2,1.400338E-2,5.5393916E-2,1.04052804E-1,1.846551E-1],"split_indices":[12,9,10,3,6,4,10,11,10,10,1,3,8,9,10,0,0,0,0,0,0,0,0,0,0,0,0,0,0,0,0],"split_type":[0,0,0,0,0,0,0,0,0,0,0,0,0,0,0,0,0,0,0,0,0,0,0,0,0,0,0,0,0,0,0],"sum_hessian":[7.944823E4,1.804923E4,6.1398996E4,1.758968E4,4.5955026E2,5.9150723E4,2.2482769E3,4.0242666E3,1.3565413E4,1.3768823E2,3.2186203E2,4.016723E3,5.5134E4,1.9118898E3,3.3638705E2,3.8708882E3,1.5337823E2,8.40818E3,5.1572334E3,3.6277584E1,1.0141065E2,3.04399E2,1.7463041E1,3.3619316E3,6.547913E2,5.003148E4,5.102516E3,5.176915E2,1.3941982E3,2.923172E2,4.4069847E1],"tree_param":{"num_deleted":"0","num_feature":"14","num_nodes":"31","size_leaf_vector":"0"}},{"base_weights":[-8.124486E-3,-2.146657E-1,1.0827297E-2,-3.302955E-1,-1.1939969E-1,-1.6140906E-2,1.811307E-1,-3.5051337E-1,2.1760596E-1,-1.5264332E-1,1.9611914E-1,-2.9362218E-2,2.6502788E-1,-1.8618666E-3,2.6938853E-1,-4.198844E-1,-2.0480262E-1,-5.255848E-1,3.9876586E-1,-2.4207217E-1,-2.8451601E-2,6.34136E-2,5.601008E-1,-1.6058643E-1,-2.7228027E-4,2.20776E-1,5.8346146E-1,-3.3823714E-1,8.6992115E-2,2.243361E-1,5.144128E-1],"categories":[],"categories_nodes":[],"categories_segments":[],"categories_sizes":[],"default_left":[false,true,true,true,true,true,false,false,true,false,true,false,true,true,true,false,false,false,false,false,false,false,false,false,false,false,false,false,false,false,false],"id":37,"left_children":[1,3,5,7,9,11,13,15,17,19,21,23,25,27,29,-1,-1,-1,-1,-1,-1,-1,-1,-1,-1,-1,-1,-1,-1,-1,-1],"loss_changes":[3.10337E2,7.336142E1,3.3352777E2,3.341281E1,3.836669E1,2.3306343E2,1.6033627E2,2.9254791E1,1.4711826E1,3.6723137E1,1.6813484E1,2.2857306E2,3.954785E1,9.6603615E1,7.381702E1,0E0,0E0,0E0,0E0,0E0,0E0,0E0,0E0,0E0,0E0,0E0,0E0,0E0,0E0,0E0,0E0],"parents":[2147483647,0,0,1,1,2,2,3,3,4,4,5,5,6,6,7,7,8,8,9,9,10,10,11,11,12,12,13,13,14,14],"right_children":[2,4,6,8,10,12,14,16,18,20,22,24,26,28,30,-1,-1,-1,-1,-1,-1,-1,-1,-1,-1,-1,-1,-1,-1,-1,-1],"split_conditions":[-1.611519E-1,-1.0010055E-1,1.1130418E-2,3.4938896E-1,2.0499179E-1,9.5E0,1.5856421E-1,3.018208E-1,-3.3451462E-1,1.9424605E-1,1.2142442E-1,1.23237975E-1,1.85E1,-2.253594E-1,2.0361054E-1,-6.298266E-2,-3.0720394E-2,-7.883772E-2,5.981488E-2,-3.6310825E-2,-4.2677405E-3,9.51204E-3,8.401512E-2,-2.4087965E-2,-4.0842042E-5,3.3116404E-2,8.751922E-2,-5.0735574E-2,1.3048817E-2,3.3650417E-2,7.716192E-2],"split_indices":[7,3,0,1,2,11,1,6,5,9,0,4,11,5,6,0,0,0,0,0,0,0,0,0,0,0,0,0,0,0,0],"split_type":[0,0,0,0,0,0,0,0,0,0,0,0,0,0,0,0,0,0,0,0,0,0,0,0,0,0,0,0,0,0,0],"sum_hessian":[7.92808E4,6.662365E3,7.261843E4,3.0084143E3,3.653951E3,6.269184E4,9.92659E3,2.9017002E3,1.0671416E2,3.3061277E3,3.478234E2,5.9877152E4,2.814689E3,3.2301724E3,6.696418E3,1.9645306E3,9.3716956E2,2.0541882E1,8.617228E1,1.9215183E3,1.3846093E3,2.5575197E2,9.2071434E1,1.0864238E4,4.9012914E4,2.4727505E3,3.419384E2,6.7437573E2,2.5557966E3,5.6580015E3,1.0384165E3],"tree_param":{"num_deleted":"0","num_feature":"14","num_nodes":"31","size_leaf_vector":"0"}},{"base_weights":[-7.0288354E-3,-1.8543549E-2,3.2187626E-1,-1.264715E-1,1.4780917E-2,2.2837749E-1,7.637077E-1,-2.3781423E-1,-4.3187015E-2,-5.7811784E-3,2.1564609E-1,1.5570217E-1,4.2457223E-1,6.3915026E-1,1.3382705E0,-3.4117553E-1,-1.6253264E-1,-8.128039E-2,2.1989897E-1,-1.0602421E-1,3.5784546E-2,1.715426E-1,5.706073E-1,-2.9878613E-1,1.8828137E-1,3.407757E-1,8.9314604E-1,5.3811693E-1,1.057031E0,1.3757981E0,-2.8904808E-1],"categories":[],"categories_nodes":[],"categories_segments":[],"categories_sizes":[],"default_left":[true,false,false,true,true,true,false,false,true,false,false,false,false,true,true,false,false,false,false,false,false,false,false,false,false,false,false,false,false,false,false],"id":38,"left_children":[1,3,5,7,9,11,13,15,17,19,21,23,25,27,29,-1,-1,-1,-1,-1,-1,-1,-1,-1,-1,-1,-1,-1,-1,-1,-1],"loss_changes":[2.996019E2,2.748992E2,1.1036618E2,1.672024E2,2.4120834E2,3.144394E1,3.2560608E1,5.998416E1,1.0341298E2,2.2074791E2,8.480263E1,2.3956799E1,2.3127235E1,1.5713303E1,5.422119E0,0E0,0E0,0E0,0E0,0E0,0E0,0E0,0E0,0E0,0E0,0E0,0E0,0E0,0E0,0E0,0E0],"parents":[2147483647,0,0,1,1,2,2,3,3,4,4,5,5,6,6,7,7,8,8,9,9,10,10,11,11,12,12,13,13,14,14],"right_children":[2,4,6,8,10,12,14,16,18,20,22,24,26,28,30,-1,-1,-1,-1,-1,-1,-1,-1,-1,-1,-1,-1,-1,-1,-1,-1],"split_conditions":[2.7839983E-1,3.9208964E-2,5.073099E-1,-1.6155952E-1,1.2389148E-1,9.156357E-2,6.6980493E-1,1.1421071E-1,1.7934191E-1,3.0298822E-2,4.966302E-1,-2.2645119E-1,5.3782725E-1,1.511939E-1,4.2095333E-1,-5.1176332E-2,-2.4379898E-2,-1.2192058E-2,3.2984845E-2,-1.5903633E-2,5.3676823E-3,2.573139E-2,8.55911E-2,-4.481792E-2,2.8242206E-2,5.111636E-2,1.3397191E-1,8.071754E-2,1.5855466E-1,2.0636973E-1,-4.3357212E-2],"split_indices":[4,6,4,5,7,6,4,10,1,3,7,5,10,9,8,0,0,0,0,0,0,0,0,0,0,0,0,0,0,0,0],"split_type":[0,0,0,0,0,0,0,0,0,0,0,0,0,0,0,0,0,0,0,0,0,0,0,0,0,0,0,0,0,0,0],"sum_hessian":[7.910551E4,7.643067E4,2.6748352E3,1.8030969E4,5.8399703E4,2.2089104E3,4.6592465E2,7.714983E3,1.0315985E4,5.2977492E4,5.42221E3,1.6131528E3,5.957576E2,3.8465015E2,8.127452E1,3.2496692E3,4.4653135E3,9.011816E3,1.3041694E3,1.5527838E4,3.7449652E4,4.824282E3,5.979278E2,1.0735478E2,1.5057981E3,5.0684436E2,8.891329E1,3.1160046E2,7.3049675E1,7.9593575E1,1.6809478E0],"tree_param":{"num_deleted":"0","num_feature":"14","num_nodes":"31","size_leaf_vector":"0"}},{"base_weights":[-6.0779783E-3,-3.4638338E-2,1.1608388E-1,-7.837611E-2,4.957083E-2,9.2289835E-2,5.577245E-1,-2.0782965E-1,-4.4230416E-2,-1.5068612E-1,8.4683925E-2,4.627009E-2,2.7891773E-1,4.2382413E-1,9.502824E-1,-2.5730833E-1,-8.424371E-2,-9.67409E-2,4.591036E-2,-3.0452067E-1,-7.919184E-2,4.194623E-2,2.544249E-1,-1.8622778E-1,8.175781E-2,1.3924584E-1,4.391725E-1,1.0072151E0,3.3012462E-1,6.0699207E-1,1.0839062E0],"categories":[],"categories_nodes":[],"categories_segments":[],"categories_sizes":[],"default_left":[true,true,false,false,false,true,false,true,true,false,true,false,false,false,false,false,false,false,false,false,false,false,false,false,false,false,false,false,false,false,false],"id":39,"left_children":[1,3,5,7,9,11,13,15,17,19,21,23,25,27,29,-1,-1,-1,-1,-1,-1,-1,-1,-1,-1,-1,-1,-1,-1,-1,-1],"loss_changes":[2.7551346E2,2.3573488E2,1.5719017E2,1.8619272E2,1.5386238E2,1.21941605E2,3.9796005E1,5.373874E1,1.57784E2,3.5878876E1,1.3503754E2,9.400873E1,6.2804276E1,3.0938126E1,8.227722E0,0E0,0E0,0E0,0E0,0E0,0E0,0E0,0E0,0E0,0E0,0E0,0E0,0E0,0E0,0E0,0E0],"parents":[2147483647,0,0,1,1,2,2,3,3,4,4,5,5,6,6,7,7,8,8,9,9,10,10,11,11,12,12,13,13,14,14],"right_children":[2,4,6,8,10,12,14,16,18,20,22,24,26,28,30,-1,-1,-1,-1,-1,-1,-1,-1,-1,-1,-1,-1,-1,-1,-1,-1],"split_conditions":[4.8465393E-2,3.6993762E-4,3.4169945E-1,1.7498188E-1,-1.3868079E-1,-1.8113428E-1,9E-1,6.005314E-4,-1.1762388E-1,-1.4740615E-2,5.3969353E-2,-1.0708366E-2,1.6133945E-1,3.5538545E-1,5.7841845E-2,-3.859625E-2,-1.2636556E-2,-1.4511135E-2,6.886554E-3,-4.56781E-2,-1.1878776E-2,6.2919348E-3,3.8163736E-2,-2.793417E-2,1.2263672E-2,2.0886876E-2,6.587588E-2,1.5108228E-1,4.9518693E-2,9.1048814E-2,1.6258593E-1],"split_indices":[12,3,12,4,10,2,12,7,10,9,7,7,10,12,10,0,0,0,0,0,0,0,0,0,0,0,0,0,0,0,0],"split_type":[0,0,0,0,0,0,0,0,0,0,0,0,0,0,0,0,0,0,0,0,0,0,0,0,0,0,0,0,0,0,0],"sum_hessian":[7.896445E4,6.400206E4,1.4962396E4,4.2123445E4,2.1878613E4,1.4198633E4,7.6376373E2,8.790753E3,3.333269E4,3.2634158E3,1.8615197E4,1.139102E4,2.807613E3,5.710574E2,1.9270634E2,6.276729E3,2.5140237E3,2.1062752E4,1.226994E4,1.0344106E3,2.2290051E3,1.4871956E4,3.7432415E3,1.5078817E3,9.883138E3,1.5011434E3,1.3064696E3,7.7676895E1,4.933805E2,5.5546204E1,1.3716014E2],"tree_param":{"num_deleted":"0","num_feature":"14","num_nodes":"31","size_leaf_vector":"0"}},{"base_weights":[-5.2795364E-3,-2.4213295E-1,8.814318E-3,-3.7241867E-1,-1.4841563E-1,-1.3202229E-1,3.2107763E-2,-4.071597E-1,1.0792196E-1,-2.1430731E-1,7.983727E-2,-2.0760709E-1,-2.016236E-3,-5.6831175E-3,1.351676E-1,-4.6202242E-1,-1.8170351E-1,4.55536E-3,1.0301222E0,2.315802E0,-2.197417E-1,-2.4213913E-1,2.3919713E-1,-2.3570319E-1,2.4749666E-1,-1.3144647E-1,9.7831555E-2,-2.1662389E-1,1.5568559E-2,1.0783733E-1,3.8371614E-1],"categories":[],"categories_nodes":[],"categories_segments":[],"categories_sizes":[],"default_left":[true,false,false,true,true,true,true,true,true,true,false,true,false,false,false,false,false,false,false,false,false,false,false,false,false,false,false,false,false,false,false],"id":40,"left_children":[1,3,5,7,9,11,13,15,17,19,21,23,25,27,29,-1,-1,-1,-1,-1,-1,-1,-1,-1,-1,-1,-1,-1,-1,-1,-1],"loss_changes":[2.630294E2,5.397769E1,2.4397816E2,3.092871E1,3.875289E1,1.03715576E2,2.4854488E2,2.126706E1,1.1970039E1,2.7992218E1,2.9698473E1,8.540042E1,5.017379E1,2.0932791E2,1.1626706E2,0E0,0E0,0E0,0E0,0E0,0E0,0E0,0E0,0E0,0E0,0E0,0E0,0E0,0E0,0E0,0E0],"parents":[2147483647,0,0,1,1,2,2,3,3,4,4,5,5,6,6,7,7,8,8,9,9,10,10,11,11,12,12,13,13,14,14],"right_children":[2,4,6,8,10,12,14,16,18,20,22,24,26,28,30,-1,-1,-1,-1,-1,-1,-1,-1,-1,-1,-1,-1,-1,-1,-1,-1],"split_conditions":[-1.85E1,1.893024E-1,-8.1707925E-2,2.1811691E-1,-1.9371727E-1,-1.8586183E-1,-6.380796E-2,-7.5741746E-3,2.7088085E-1,5E-1,3.9717358E-1,2.669536E-1,1.3066826E-2,1.2716055E-1,3.6158913E-1,-6.930336E-2,-2.7255528E-2,6.8330404E-4,1.5451834E-1,3.4737033E-1,-3.2961257E-2,-3.6320873E-2,3.587957E-2,-3.535548E-2,3.71245E-2,-1.971697E-2,1.4674733E-2,-3.2493584E-2,2.335284E-3,1.61756E-2,5.7557423E-2],"split_indices":[11,10,9,4,9,2,5,1,1,13,10,1,10,1,5,0,0,0,0,0,0,0,0,0,0,0,0,0,0,0,0],"split_type":[0,0,0,0,0,0,0,0,0,0,0,0,0,0,0,0,0,0,0,0,0,0,0,0,0,0,0,0,0,0,0],"sum_hessian":[7.879267E4,4.424294E3,7.4368375E4,1.8497705E3,2.5745232E3,1.0553746E4,6.3814633E4,1.72515E3,1.24620445E2,1.9978485E3,5.766747E2,6.673319E3,3.880427E3,4.669357E4,1.712106E4,1.3866676E3,3.3848245E2,1.1296364E2,1.1656809E1,3.3707592E0,1.9944778E3,1.9075233E2,3.8592236E2,6.2857466E3,3.875721E2,1.689741E3,2.190686E3,4.2728403E3,4.242073E4,1.5426233E4,1.6948271E3],"tree_param":{"num_deleted":"0","num_feature":"14","num_nodes":"31","size_leaf_vector":"0"}},{"base_weights":[-4.619547E-3,-1.6547259E-2,2.6722252E-1,-2.4928933E-2,3.4912282E-1,2.2970016E-1,7.131468E-1,-5.572366E-2,7.790363E-2,3.0225834E-1,9.753358E-1,1.8874311E-1,5.019284E-1,6.2996584E-1,1.1184224E0,-2.8361896E-1,-4.089287E-2,-1.3272703E-1,1.09373316E-1,2.6181152E-1,6.167625E-1,9.1692334E-1,2.4314663E0,1.3899416E-2,2.5709233E-1,3.0476652E-2,5.820886E-1,4.9511316E-1,9.3649757E-1,4.427725E-1,1.2750438E0],"categories":[],"categories_nodes":[],"categories_segments":[],"categories_sizes":[],"default_left":[true,true,false,true,false,true,true,false,false,true,false,false,false,false,false,false,false,false,false,false,false,false,false,false,false,false,false,false,false,false,false],"id":41,"left_children":[1,3,5,7,9,11,13,15,17,19,21,23,25,27,29,-1,-1,-1,-1,-1,-1,-1,-1,-1,-1,-1,-1,-1,-1,-1,-1],"loss_changes":[2.5505379E2,2.3096323E2,5.5158493E1,2.3328384E2,4.9260284E1,3.39252E1,7.9303894E0,1.9159439E2,1.1254635E2,1.9841324E1,7.7324905E0,3.1710304E1,1.50392685E1,8.416054E0,3.9148788E0,0E0,0E0,0E0,0E0,0E0,0E0,0E0,0E0,0E0,0E0,0E0,0E0,0E0,0E0,0E0,0E0],"parents":[2147483647,0,0,1,1,2,2,3,3,4,4,5,5,6,6,7,7,8,8,9,9,10,10,11,11,12,12,13,13,14,14],"right_children":[2,4,6,8,10,12,14,16,18,20,22,24,26,28,30,-1,-1,-1,-1,-1,-1,-1,-1,-1,-1,-1,-1,-1,-1,-1,-1],"split_conditions":[3.6017227E-1,4.2820093E-1,6.316978E-1,5E-1,6.7800903E-1,1.77333E-1,1.6386792E-1,-2.1536994E-1,7.718029E-2,8.807369E-2,8.839877E-1,-5.265671E-3,-8.61275E-2,7.2063476E-1,-2.3044996E-2,-4.2542845E-2,-6.1339308E-3,-1.9909054E-2,1.6405998E-2,3.927173E-2,9.251438E-2,1.3753851E-1,3.6471996E-1,2.0849125E-3,3.856385E-2,4.571498E-3,8.7313294E-2,7.426698E-2,1.4047465E-1,6.6415876E-2,1.9125658E-1],"split_indices":[3,6,3,11,6,7,6,6,1,12,6,10,4,3,1,0,0,0,0,0,0,0,0,0,0,0,0,0,0,0,0],"split_type":[0,0,0,0,0,0,0,0,0,0,0,0,0,0,0,0,0,0,0,0,0,0,0,0,0,0,0,0,0,0,0],"sum_hessian":[7.865835E4,7.5353E4,3.3053516E3,7.366542E4,1.6875833E3,3.0502065E3,2.5514503E2,5.66894E4,1.697602E4,1.571461E3,1.1612222E2,2.6527852E3,3.974213E2,2.1381491E2,4.1330128E1,3.462668E3,5.322673E4,2.2062288E3,1.476979E4,1.394016E3,1.7744499E2,1.132105E2,2.911721E0,7.459019E2,1.9068833E3,5.795382E1,3.3946747E2,1.5030595E2,6.3508953E1,8.497929E0,3.28322E1],"tree_param":{"num_deleted":"0","num_feature":"14","num_nodes":"31","size_leaf_vector":"0"}},{"base_weights":[-3.9826883E-3,-1.9399777E-2,2.0443043E-1,-1.2915103E-1,8.207882E-3,-4.4221383E-2,2.5010625E-1,-1.8318196E-1,-2.656762E-2,-6.0168514E-3,2.3845272E-1,-2.8102702E-1,1.3416988E-1,1.9798549E-1,4.78321E-1,-2.0086189E-1,1.2851572E-1,-4.7229223E-2,4.4154578E-1,-2.1493927E-2,1.8473949E-1,1.98323E-1,6.309171E-1,-8.788016E-1,-2.0771089E-1,-3.4093818E-1,2.5836334E-1,1.4992954E-1,4.2482352E-1,4.4062263E-1,1.2486091E0],"categories":[],"categories_nodes":[],"categories_segments":[],"categories_sizes":[],"default_left":[true,false,false,true,true,false,false,true,true,true,false,true,true,true,false,false,false,false,false,false,false,false,false,false,false,false,false,false,false,false,false],"id":42,"left_children":[1,3,5,7,9,11,13,15,17,19,21,23,25,27,29,-1,-1,-1,-1,-1,-1,-1,-1,-1,-1,-1,-1,-1,-1,-1,-1],"loss_changes":[2.5209346E2,2.2135037E2,6.1386703E1,8.137804E1,1.9117717E2,3.550098E1,5.4211243E1,5.3024536E1,4.902579E1,1.6231175E2,5.336673E1,1.563936E1,2.837957E1,4.047043E1,2.407843E1,0E0,0E0,0E0,0E0,0E0,0E0,0E0,0E0,0E0,0E0,0E0,0E0,0E0,0E0,0E0,0E0],"parents":[2147483647,0,0,1,1,2,2,3,3,4,4,5,5,6,6,7,7,8,8,9,9,10,10,11,11,12,12,13,13,14,14],"right_children":[2,4,6,8,10,12,14,16,18,20,22,24,26,28,30,-1,-1,-1,-1,-1,-1,-1,-1,-1,-1,-1,-1,-1,-1,-1,-1],"split_conditions":[1.5786672E-1,1.3488358E-1,-7.3253065E-2,-1.0927679E-1,2.8568113E-1,6.521967E-2,4.0747285E-1,8.5E0,3.6034414E-1,1.1374962E-1,5.6368494E-1,-3.3698797E-1,-2.8173247E-1,5.4299757E-2,6.7431295E-1,-3.0129284E-2,1.9277358E-2,-7.0843836E-3,6.623187E-2,-3.224089E-3,2.7710924E-2,2.9748451E-2,9.4637565E-2,-1.3182025E-1,-3.1156635E-2,-5.114073E-2,3.87545E-2,2.2489432E-2,6.3723534E-2,6.60934E-2,1.8729137E-1],"split_indices":[2,4,1,8,10,0,2,11,1,8,10,7,6,12,2,0,0,0,0,0,0,0,0,0,0,0,0,0,0,0,0],"split_type":[0,0,0,0,0,0,0,0,0,0,0,0,0,0,0,0,0,0,0,0,0,0,0,0,0,0,0,0,0,0,0],"sum_hessian":[7.845521E4,7.305217E4,5.4030327E3,